elements: [Al, Li]
E0: [0, 0]
deltaSplineBins: 0.001
embeddings:
  0: {ndensity: 2, FS_parameters: [1, 1, 1, 0.5], npoti: FinnisSinclairShiftedScaled, rho_core_cutoff: 100000, drho_core_cutoff: 250}
  1: {ndensity: 2, FS_parameters: [1, 1, 1, 0.5], npoti: FinnisSinclairShiftedScaled, rho_core_cutoff: 100000, drho_core_cutoff: 250}
bonds:
  [0, 0]: {nradmax: 4, lmax: 3, nradbasemax: 15, radbasename: SBessel, radparameters: [5.25], radcoefficients: [[[1.995274603767268, -1.1940566258712266, 0.15079568577341573, 0.33090073055885799, -0.29728597250943362, 0.42724726095548216, -0.47059742551008327, 0.55333862009723567, -0.5854367940568912, 0.51023798299807988, -0.38659006791499873, 0.2531290228041872, -0.14268711096900513, 0.063555869404624502, -0.018329398130384377], [1.6009098040752998, -0.37098714483385514, -0.49700558020843189, 0.2316044025081806, 0.036623510935285118, -0.11045899109477014, 0.080777245013844798, -0.086269670512648444, 0.11541654354748318, -0.17782272060757706, 0.20357699418120928, -0.17911373712393205, 0.12004737770261568, -0.065632642986788517, 0.018050751175281016], [0.97583433697389466, -0.25468214206613426, -0.30530120294511742, 0.27000956603887066, 0.18442669717495191, -0.10951136313232707, 0.031118236477946152, -0.088178658817911995, 0.10683718179672012, -0.1552918237547711, 0.15745228947841711, -0.13645779764614593, 0.086623255644787428, -0.042428119679867884, 0.014975347776437119], [1.0372372182451559, -0.46765633069948287, 0.14817943761014152, 0.48620699334545397, -0.17431630298871892, -0.59682187175231227, -0.21567866650851858, -0.13428147723805636, -0.41570734633039841, 0.47925869613822841, -0.54736070945838822, 0.25254832232556423, -0.039255622581321453, -0.020572756381556385, -0.018229119350973239]], [[0.18470441919314828, 0.9550479557992072, -0.32300413836437969, 0.039696552866061843, 0.22037513278587798, -0.083836239756794162, 0.027067901905998296, 0.088202397885097913, -0.11829078882876642, 0.16481406994218142, -0.12365942103221918, 0.10787045624459905, -0.048485633225527215, 0.017598472429362213, 0.011471007278746866], [-0.21116080730544939, 0.82080565439132303, -0.62003593921442912, -0.32235694479451271, 0.5880391083620734, -0.0097384310719412261, -0.2552994091561494, 0.29720306413808995, -0.34364764439288759, 0.2032048997363114, -0.11450156117640746, 0.030223099616818731, -0.012333946428348589, -0.017280864664796156, -0.0048936595767281347], [-0.3640350870596511, 0.65019379329369009, -0.015475150029063257, -0.59998430626209698, 0.20249089618042859, 0.2965248342584178, -0.4123632445801611, 0.47377983197790674, -0.36514068481857764, 0.22921953426671587, -0.095070288567333155, 0.033229700588914078, -0.006141603804280092, -0.002973983173367895, -8.4141956168899869e-05], [0.062240692054215029, 1.2252287226980447, -0.67223246943009507, -0.052407745575813236, 0.69135682183184088, -0.23886626248627016, -0.39216938415604391, -0.22807727447087559, 0.087377079348281955, -0.11055162248551598, -0.020512344295395155, -0.027335381328248424, -0.00089452490990555612, 0.01300935135440451, -0.040414067823481697]], [[1.1993134010049691, -0.63314447785483852, -0.0071593924474150934, 0.63294285604861245, -0.29079763586383145, -0.20890775926627511, 0.3168763255909553, -0.34011153906939667, 0.36670759752619125, -0.30977588969823117, 0.26253645029448802, -0.15405832966126856, 0.09291856569820689, -0.046827223302184501, 0.030866371921847106], [-1.5479445518815731, 0.58811592662354373, 0.50877417121608204, -0.91208931595005971, 0.8425715923663315, -0.33338650257025804, 0.18836678553105307, -0.10148665049221349, -0.059460162444829122, 0.12459939019299518, -0.17676753552932847, 0.15198139239127076, -0.11365242959858726, 0.051012668048729698, -0.022581677201908373], [-1.1295036079268956, 0.212606789568761, 0.61242877703876564, -0.4142809428444329, 0.52285769799098469, -0.24223946234585644, 0.15181892337915034, -0.26772935138445653, 0.00033726273403824572, 0.14770988904978422, -0.20511479280451067, 0.19024533772865868, -0.12015357545201007, 0.062744852733197118, 0.0056240919022302995], [0.2021041266930747, -0.31359067634156546, 1.0471502960035219, -0.29303220786553746, -0.38889935492885402, 0.098925749809461894, -0.70099622453866817, -0.20534670466527555, 0.021236890825272119, -0.22694312359698601, 0.13606650424466937, -0.29826458080146268, 0.31010122989669608, -0.20162762046258972, 0.026238061399705474]], [[0.32463036955399394, -0.23960370817033549, -0.38753606685694364, 1.4006721826564126, 0.14801419333840804, -0.81961028514227419, -0.2095036427987704, 0.50440474098467458, -0.31604652845589543, 0.044633336697509234, 0.27098355647213512, -0.28699574999697114, 0.27544539374929911, -0.16406537837348784, 0.10069969508355238], [-0.89088210236019805, -0.24648733096813055, 0.5585446093949481, 0.53664343394123948, -0.63826241143608708, -0.051639970070492452, -0.16917291467848641, 0.11641436780558354, 0.08104256454957745, -0.0097054031258718889, -0.004743883105810363, 0.047494525188311335, -0.024012469996321385, 0.053487487352833984, 0.016737070105879631], [-0.43231433322060875, -0.71337294328733003, 0.17685774864216061, 1.8182374184634376, 0.38447723348952306, -0.17954632280727514, -0.44229090987703329, -0.33339291601625459, -0.074250648917326287, 0.13405508321047688, -0.21188105462150916, 0.11100081749583711, -0.035496715463755366, 0.021489619795236243, 0.063330410412279728], [-0.47322075818878329, -0.18782621518001413, 0.081831036973807003, 1.0732089343050066, -1.123908067503766, -0.73228618465500273, 0.49704000720264147, -0.68049449709454668, 0.044632382161898278, 0.1849562605381532, -0.34956629637783793, 0.13879104474509568, 0.062011026823775968, -0.093790052636669868, 0.016609715669454052]]], prehc: 0, lambdahc: 0, rcut: 7, dcut: 0.01, rcut_in: 0, dcut_in: 0, inner_cutoff_type: distance}
  [0, 1]: {nradmax: 4, lmax: 3, nradbasemax: 15, radbasename: SBessel, radparameters: [5.25], radcoefficients: [[[1.6048677906864131, -0.77774080773949772, -0.096889391625353108, 0.40976100578208124, -0.10023791487014627, 0.024046327651934464, -0.039354694150964716, 0.0072032580547904089, 0.023393763056996947, -0.018646963213332059, 0.013799476384257723, -0.0065574499095388226, 0.012820801943861964, -0.0065094637193608071, 0.0058558546150313702], [1.2557030943781637, -0.61460735515161891, -0.06315092174161023, 0.19633809453136239, -0.086160482491727294, 0.091405325340385882, -0.089533843478208947, 0.0099692425329780364, 0.017520599552684125, -0.036632000914082627, 0.029556445059572785, -0.019262661901588752, 0.0087342100583063971, -0.00011298212574780987, -0.0012864342505488041], [0.62009165860894855, 0.42056237260521623, -0.81938462223986963, 0.22167357595079473, 0.45933614007998447, -0.52696609195061561, 0.5676398834520654, -0.51359314820698909, 0.32368673925098196, -0.18213050301604911, 0.051174355298833574, -0.0033306742952631122, -0.019414935628180748, 0.0090870569843293104, -0.010260310051676585], [0.74495023355675472, -0.32009266317766027, 0.075928796114025698, -0.23750447540669931, 0.054513090032282593, 0.29168021460052462, -0.23550367094361604, 0.23777323861486876, -0.15464332842793008, 0.065822587583724113, -0.015554666741153743, -0.0057697710432298658, -0.00042266688318948843, -0.0039511290402043635, 0.0016485967781654219]], [[-0.3188390381979081, 1.491093176736024, -1.1767729752081528, 0.066774304963734626, 0.7477992856367156, -0.51230672471293359, 0.20752079059580625, -0.033561035754598678, -0.072159706486489741, 0.10981589059185595, -0.081250542261127712, 0.031107809142009845, 0.0169890385117672, -0.016584088238599186, 0.012072684295278632], [-0.40085965385092731, 0.81191162532876138, -0.27894550253653438, -0.48907940039459935, 0.36329937311623867, 0.04580103056275403, -0.17999456336257019, 0.27875662826307751, -0.26696690508184939, 0.17062753582499665, -0.073270076745522411, 0.0025105663668835206, 0.023604995292957932, -0.016980717940380394, 0.0057954862272237163], [-0.98849801417360283, 1.1807964496869467, -0.5776744948124225, -0.059915789306811844, 0.15810309257834859, -0.1506812419137431, 0.23630207756487068, -0.10488887422978403, 0.024386286967634001, 0.030159585869018669, -0.062075323940938523, 0.061887443702116844, -0.060513060004590231, 0.036283210463320781, -0.019859401649475313], [-0.24658637868484884, 0.6608777969784263, -0.20340563931626732, -0.070798009669073569, 0.2487774599810294, -0.085111716436241242, -0.068308298413830806, 0.18046819802894648, -0.35559431388238227, 0.40543193818085754, -0.38739456615312867, 0.28487327505355831, -0.17253389568007765, 0.074407920402389555, -0.026683550340297176]], [[-0.64122007032757489, -0.4989293263837255, 1.1053991299462953, -0.68701803367371428, -0.34005106116388661, 0.48273748010877349, -0.33388912861004882, 0.25326851967797176, -0.15184620039303881, 0.053095775188838443, -0.0064993376544111702, -0.0069432592490344183, -0.017045152517830727, 0.010290284891969197, -0.012152000894481952], [-0.070658361359635907, -0.19839848839865298, 0.67350612391790887, -0.72716133631008251, 0.40031963645089885, 0.0083256805890709988, -0.30041783074041656, 0.48294726329327681, -0.50086832480396781, 0.41351501503469357, -0.28163712395826618, 0.15682517795320527, -0.071242721680172927, 0.024432861565774643, -0.0045992684838547498], [0.12248944106706301, -0.81423565900412787, 1.3039791982183835, -0.6887623853627437, -0.18317006027686686, 0.33834367559060752, -0.36975104095111849, 0.4208990460479286, -0.27650707190425655, 0.1855001985039075, -0.082393448769897681, 0.044706581884005947, -0.021931567212711535, 0.020422443529665098, 0.0019795647199315762], [-0.014885763641729366, -0.41063142536952524, 0.84466036618815599, -0.097074547701842859, -0.009062686803730095, -0.24035199629148968, 0.024942971469471546, 0.085748013731259468, -0.13542655705601264, 0.22847310699844739, -0.21763415970513431, 0.15808688125453935, -0.084804642933332175, 0.047965586910273944, -0.019734641340100043]], [[0.55275267470391598, 0.20748361654791894, -0.16858131766049242, 0.55972133606364238, -0.4770819792118583, 0.16412077398416311, 0.0425364935374331, -0.13891307175426751, 0.17434055873936205, -0.12209055355734519, 0.080131747980431725, -0.029039080831584681, 0.027342337163250536, -0.020427053990443783, 0.017097110128789433], [-0.53758430287820558, -0.61106115955083196, -0.61498534177237052, 0.57723671285790579, 0.10765743024928834, 0.019589854098585394, -0.25531012290098121, 0.008258471019681567, -0.12642864305621176, 0.1239545080065646, -0.1402335978150121, 0.085444917847053103, -0.04507412694952255, 0.011633810053989776, 0.0016501360092715657], [0.67797126119655882, -0.081248322790696353, -0.46016992011823804, 0.68718058590743003, -0.49540084746875362, 0.026993295966630002, 0.19763719772976493, -0.13959634863649054, 0.0033951441162087537, 0.15542095272399301, -0.25898890197795882, 0.26418942289325115, -0.20899497664232319, 0.1145811654404818, -0.03848602368081664], [-0.059151847161150475, -0.16104452082324916, -0.084501842759562157, 1.0576796108565905, -0.42928518026932694, -0.46617101297582625, 0.26057344836396301, -0.046311212682699714, -0.095808906917799072, 0.36974063999974111, -0.36470773837448517, 0.31359806404048263, -0.19332640176333019, 0.11265878024476084, -0.031635503037061342]]], prehc: 0, lambdahc: 0, rcut: 7, dcut: 0.01, rcut_in: 0, dcut_in: 0, inner_cutoff_type: distance}
  [1, 0]: {nradmax: 4, lmax: 3, nradbasemax: 15, radbasename: SBessel, radparameters: [5.25], radcoefficients: [[[1.6048677906864131, -0.77774080773949772, -0.096889391625353108, 0.40976100578208124, -0.10023791487014627, 0.024046327651934464, -0.039354694150964716, 0.0072032580547904089, 0.023393763056996947, -0.018646963213332059, 0.013799476384257723, -0.0065574499095388226, 0.012820801943861964, -0.0065094637193608071, 0.0058558546150313702], [1.2557030943781637, -0.61460735515161891, -0.06315092174161023, 0.19633809453136239, -0.086160482491727294, 0.091405325340385882, -0.089533843478208947, 0.0099692425329780364, 0.017520599552684125, -0.036632000914082627, 0.029556445059572785, -0.019262661901588752, 0.0087342100583063971, -0.00011298212574780987, -0.0012864342505488041], [0.62009165860894855, 0.42056237260521623, -0.81938462223986963, 0.22167357595079473, 0.45933614007998447, -0.52696609195061561, 0.5676398834520654, -0.51359314820698909, 0.32368673925098196, -0.18213050301604911, 0.051174355298833574, -0.0033306742952631122, -0.019414935628180748, 0.0090870569843293104, -0.010260310051676585], [0.74495023355675472, -0.32009266317766027, 0.075928796114025698, -0.23750447540669931, 0.054513090032282593, 0.29168021460052462, -0.23550367094361604, 0.23777323861486876, -0.15464332842793008, 0.065822587583724113, -0.015554666741153743, -0.0057697710432298658, -0.00042266688318948843, -0.0039511290402043635, 0.0016485967781654219]], [[-0.3188390381979081, 1.491093176736024, -1.1767729752081528, 0.066774304963734626, 0.7477992856367156, -0.51230672471293359, 0.20752079059580625, -0.033561035754598678, -0.072159706486489741, 0.10981589059185595, -0.081250542261127712, 0.031107809142009845, 0.0169890385117672, -0.016584088238599186, 0.012072684295278632], [-0.40085965385092731, 0.81191162532876138, -0.27894550253653438, -0.48907940039459935, 0.36329937311623867, 0.04580103056275403, -0.17999456336257019, 0.27875662826307751, -0.26696690508184939, 0.17062753582499665, -0.073270076745522411, 0.0025105663668835206, 0.023604995292957932, -0.016980717940380394, 0.0057954862272237163], [-0.98849801417360283, 1.1807964496869467, -0.5776744948124225, -0.059915789306811844, 0.15810309257834859, -0.1506812419137431, 0.23630207756487068, -0.10488887422978403, 0.024386286967634001, 0.030159585869018669, -0.062075323940938523, 0.061887443702116844, -0.060513060004590231, 0.036283210463320781, -0.019859401649475313], [-0.24658637868484884, 0.6608777969784263, -0.20340563931626732, -0.070798009669073569, 0.2487774599810294, -0.085111716436241242, -0.068308298413830806, 0.18046819802894648, -0.35559431388238227, 0.40543193818085754, -0.38739456615312867, 0.28487327505355831, -0.17253389568007765, 0.074407920402389555, -0.026683550340297176]], [[-0.64122007032757489, -0.4989293263837255, 1.1053991299462953, -0.68701803367371428, -0.34005106116388661, 0.48273748010877349, -0.33388912861004882, 0.25326851967797176, -0.15184620039303881, 0.053095775188838443, -0.0064993376544111702, -0.0069432592490344183, -0.017045152517830727, 0.010290284891969197, -0.012152000894481952], [-0.070658361359635907, -0.19839848839865298, 0.67350612391790887, -0.72716133631008251, 0.40031963645089885, 0.0083256805890709988, -0.30041783074041656, 0.48294726329327681, -0.50086832480396781, 0.41351501503469357, -0.28163712395826618, 0.15682517795320527, -0.071242721680172927, 0.024432861565774643, -0.0045992684838547498], [0.12248944106706301, -0.81423565900412787, 1.3039791982183835, -0.6887623853627437, -0.18317006027686686, 0.33834367559060752, -0.36975104095111849, 0.4208990460479286, -0.27650707190425655, 0.1855001985039075, -0.082393448769897681, 0.044706581884005947, -0.021931567212711535, 0.020422443529665098, 0.0019795647199315762], [-0.014885763641729366, -0.41063142536952524, 0.84466036618815599, -0.097074547701842859, -0.009062686803730095, -0.24035199629148968, 0.024942971469471546, 0.085748013731259468, -0.13542655705601264, 0.22847310699844739, -0.21763415970513431, 0.15808688125453935, -0.084804642933332175, 0.047965586910273944, -0.019734641340100043]], [[0.55275267470391598, 0.20748361654791894, -0.16858131766049242, 0.55972133606364238, -0.4770819792118583, 0.16412077398416311, 0.0425364935374331, -0.13891307175426751, 0.17434055873936205, -0.12209055355734519, 0.080131747980431725, -0.029039080831584681, 0.027342337163250536, -0.020427053990443783, 0.017097110128789433], [-0.53758430287820558, -0.61106115955083196, -0.61498534177237052, 0.57723671285790579, 0.10765743024928834, 0.019589854098585394, -0.25531012290098121, 0.008258471019681567, -0.12642864305621176, 0.1239545080065646, -0.1402335978150121, 0.085444917847053103, -0.04507412694952255, 0.011633810053989776, 0.0016501360092715657], [0.67797126119655882, -0.081248322790696353, -0.46016992011823804, 0.68718058590743003, -0.49540084746875362, 0.026993295966630002, 0.19763719772976493, -0.13959634863649054, 0.0033951441162087537, 0.15542095272399301, -0.25898890197795882, 0.26418942289325115, -0.20899497664232319, 0.1145811654404818, -0.03848602368081664], [-0.059151847161150475, -0.16104452082324916, -0.084501842759562157, 1.0576796108565905, -0.42928518026932694, -0.46617101297582625, 0.26057344836396301, -0.046311212682699714, -0.095808906917799072, 0.36974063999974111, -0.36470773837448517, 0.31359806404048263, -0.19332640176333019, 0.11265878024476084, -0.031635503037061342]]], prehc: 0, lambdahc: 0, rcut: 7, dcut: 0.01, rcut_in: 0, dcut_in: 0, inner_cutoff_type: distance}
  [1, 1]: {nradmax: 4, lmax: 3, nradbasemax: 15, radbasename: SBessel, radparameters: [5.25], radcoefficients: [[[0.71743087610668865, -0.11236949099841606, -0.06128960695853021, 0.016975571418756299, 0.13016205496696304, -0.013428629784293881, 0.0045815562835153046, 0.010107077649838614, 0.018454156781826252, -0.028330117519334352, 0.061045254302297569, -0.061150944509979467, 0.051948228351027886, -0.027991491804165689, 0.014723308742621986], [0.74188786962451447, -0.18521241397212074, -0.047121817464775201, -0.074442439060045829, 0.052474004455029352, 0.0026213861762559398, -0.030154134074002116, 0.039366340051179283, -0.048862923439956484, 0.039342431037249249, -0.020052286568181071, 0.0097309225625378075, -0.0019959108126951881, 0.001167545172405014, 0.0010661491536949528], [0.49005784746617054, -0.05714931851437878, 0.050580761999364982, -0.19241595947572288, 0.11802862461871609, -0.010945783873788207, -0.020733423665613319, 0.068490528774598464, -0.07246237066288877, 0.050930516576149006, -0.020092771975648949, 0.01092969718852113, 0.0039008252746511839, -0.00370926453729791, 0.0012074127892391334], [0.58404568394292244, -0.13815471812792834, 0.41103844623807279, 0.14788272420593201, 0.063058192464615456, 0.10776091878013898, -0.20806645505156915, 0.083327410310367209, 0.13007237471892466, -0.042284232651985942, 0.16757398725192996, -0.15953589448298139, 0.097535970198063385, -0.028757525051107489, 0.021679158174915187]], [[-0.06003168135485993, 0.78559797334644499, -0.31832338723000297, -0.13278934471399712, 0.32542334556229396, 0.16505535270285918, -0.14150853860401719, 0.18124321296356197, -0.082810770004135295, 0.020558097402765478, 0.087988526805048956, -0.11005256600385967, 0.11189920877614248, -0.061218090051957462, 0.034474346853815167], [-0.66815174925505494, 0.44678418473286186, -0.23332926956488795, -0.060751028141951345, -0.021695667118884394, 0.055126440330445899, 0.013166275098050169, -0.077673902084425997, 0.12898765509414584, -0.17351251146353497, 0.17677564499806495, -0.15401386810862591, 0.11005746589142389, -0.063811822657815168, 0.021912080231318295], [-0.4266276430336598, 0.73512408705473264, -0.14011207200759809, -0.27175615585922774, -0.013183034045593506, 0.0056763673402977066, -0.021385343162193468, 0.085420667889168203, -0.094861106181656191, 0.057121269871791114, -0.05461440214674556, 0.024338548654817709, -0.027590468028252709, 0.019889753242126891, -0.0073894921479238148], [0.052161158538696913, 0.93690352020392687, 0.19047347561857772, 0.26487310593942043, -0.12307074202834785, 0.025781669586128462, 0.024342827096216765, -0.1321981027230672, 0.14345780731487764, -0.024958898010758949, 0.0028418949170504041, 0.092679814316435863, -0.15498036893796693, 0.090686713836945376, -0.017221323546926948]], [[-0.185770200988045, -0.015168136277593771, 0.73337690965346836, -0.67520145718288982, -0.17405145971685582, 0.095768986354076699, -0.0091793134595678956, 0.039697253043010867, -0.072343266385372015, 0.077344032963011095, -0.10379588052102186, 0.091846250594175935, -0.075565398555161215, 0.040821210070130211, -0.022743323529068469], [-0.14359074029613644, -0.10418412136360961, 0.87228098976991719, -0.14954485585704394, 0.042842981841599903, -0.076030897261060437, -0.069914033491440791, 0.067965284049465335, -0.064553649444414413, 0.086197802083334926, -0.10262308353796522, 0.093266579649598308, -0.073010021234153302, 0.046283559722641081, -0.019537259530298084], [0.1630985119012362, -0.1827507338315566, 0.46095223073529668, -0.47893351977104021, -0.12515400294262041, -0.025755094268017534, -0.068963836778663037, 0.060018490972792424, -0.094106656763126614, 0.025311395316662263, -0.033679804079195956, -0.022289597003781018, -0.0021375626080003558, -0.0037096592227927327, -2.9090267802056309e-05], [0.1133206504016617, -0.18891802464712132, 0.90746183162451055, 0.03426867153222287, -0.071805684638182571, 0.10994806879695872, 0.023899346736934671, -0.067031588156856281, 0.004481817613052495, -0.067046041367208584, 0.057796329091097408, 0.017253205531644861, -0.067506204843586062, 0.0070052454288440369, 0.0021667749276090553]], [[0.2419953001288094, 0.11142620089315509, -0.149960670084475, 0.66453182029585034, -0.10256384101891415, -0.08811646379373525, -0.1273224888823431, 0.13398978237593256, -0.14976253165333464, 0.11165639265600612, -0.048199031275573838, -0.0026772466747208364, 0.028464460356164831, -0.032295691079216433, 0.022121436431098016], [0.50186325867548531, 0.22155445465102705, -0.03498276895590386, 0.61748917097613065, -0.36503888248985289, 0.12805592029629201, -0.13108477206614344, -0.033971809031872878, 0.10633349532883196, -0.1140857828256534, 0.082333555546446779, -0.052995765471959166, 0.022634858608700525, -0.0063636748503859506, -0.0025172189699743655], [-0.00059867354969644524, -0.2099552609486412, -0.18947461548233122, 0.69113201621052411, 0.059176882391378319, 0.39741971249348379, -0.14971156065384061, 0.067566420127374113, 0.1361709887723927, -0.10862593000318935, 0.20204769136207079, -0.080475288265104736, 0.11395016505997982, -0.052725402899370742, 0.021450606075925374], [-0.22160907873089208, -0.14846813927515537, 0.033208107332575496, 0.63125393780502714, -0.37921176316445804, 0.28141251930229011, 0.21930255618598893, -0.16455069684985082, -0.16946615936732648, -0.15796426493729784, -0.01092767609232086, 0.11057762211710345, -0.11574838201077714, -0.033284821065676526, -0.010121388140574748]]], prehc: 0, lambdahc: 0, rcut: 7, dcut: 0.01, rcut_in: 0, dcut_in: 0, inner_cutoff_type: distance}
functions:
  0:
    - {mu0: 0, rank: 1, ndensity: 2, num_ms_combs: 1, mus: [0], ns: [1], ls: [0], ms_combs: [0], ctildes: [2.0970219095074687, -3.9539202281610351]}
    - {mu0: 0, rank: 1, ndensity: 2, num_ms_combs: 1, mus: [0], ns: [2], ls: [0], ms_combs: [0], ctildes: [-1.8968648691718397, -2.3146574133175974]}
    - {mu0: 0, rank: 1, ndensity: 2, num_ms_combs: 1, mus: [0], ns: [3], ls: [0], ms_combs: [0], ctildes: [1.3504952496800906, 1.5291190439028692]}
    - {mu0: 0, rank: 1, ndensity: 2, num_ms_combs: 1, mus: [0], ns: [4], ls: [0], ms_combs: [0], ctildes: [0.040517989827027742, 0.11933504671036224]}
    - {mu0: 0, rank: 1, ndensity: 2, num_ms_combs: 1, mus: [0], ns: [5], ls: [0], ms_combs: [0], ctildes: [-1.4909071119846318, -0.53609988859380953]}
    - {mu0: 0, rank: 1, ndensity: 2, num_ms_combs: 1, mus: [0], ns: [6], ls: [0], ms_combs: [0], ctildes: [1.976190153034201, 0.16537272495405675]}
    - {mu0: 0, rank: 1, ndensity: 2, num_ms_combs: 1, mus: [0], ns: [7], ls: [0], ms_combs: [0], ctildes: [-1.6462665277302213, -0.24694002940189691]}
    - {mu0: 0, rank: 1, ndensity: 2, num_ms_combs: 1, mus: [0], ns: [8], ls: [0], ms_combs: [0], ctildes: [0.94321421918468984, 0.34945410614097183]}
    - {mu0: 0, rank: 1, ndensity: 2, num_ms_combs: 1, mus: [0], ns: [9], ls: [0], ms_combs: [0], ctildes: [-0.29279214787517222, -0.37044437046419726]}
    - {mu0: 0, rank: 1, ndensity: 2, num_ms_combs: 1, mus: [0], ns: [10], ls: [0], ms_combs: [0], ctildes: [-0.035140506234097459, 0.019881644112876302]}
    - {mu0: 0, rank: 1, ndensity: 2, num_ms_combs: 1, mus: [0], ns: [11], ls: [0], ms_combs: [0], ctildes: [0.17020493136361367, 0.06716570540085165]}
    - {mu0: 0, rank: 1, ndensity: 2, num_ms_combs: 1, mus: [0], ns: [12], ls: [0], ms_combs: [0], ctildes: [-0.15790813844681234, -0.080960051176505343]}
    - {mu0: 0, rank: 1, ndensity: 2, num_ms_combs: 1, mus: [0], ns: [13], ls: [0], ms_combs: [0], ctildes: [0.11779966211393553, -0.042375359614770958]}
    - {mu0: 0, rank: 1, ndensity: 2, num_ms_combs: 1, mus: [0], ns: [14], ls: [0], ms_combs: [0], ctildes: [-0.063500347718845607, 0.073375174752085867]}
    - {mu0: 0, rank: 1, ndensity: 2, num_ms_combs: 1, mus: [0], ns: [15], ls: [0], ms_combs: [0], ctildes: [0.030366765450449876, -0.085848307614731806]}
    - {mu0: 0, rank: 1, ndensity: 2, num_ms_combs: 1, mus: [1], ns: [1], ls: [0], ms_combs: [0], ctildes: [0.91843424537280882, -2.4170371138562308]}
    - {mu0: 0, rank: 1, ndensity: 2, num_ms_combs: 1, mus: [1], ns: [2], ls: [0], ms_combs: [0], ctildes: [-0.88380210517336399, -0.97055273167339651]}
    - {mu0: 0, rank: 1, ndensity: 2, num_ms_combs: 1, mus: [1], ns: [3], ls: [0], ms_combs: [0], ctildes: [0.56637798031010378, 0.71444740118014471]}
    - {mu0: 0, rank: 1, ndensity: 2, num_ms_combs: 1, mus: [1], ns: [4], ls: [0], ms_combs: [0], ctildes: [0.070862244725352075, -0.7150297271427184]}
    - {mu0: 0, rank: 1, ndensity: 2, num_ms_combs: 1, mus: [1], ns: [5], ls: [0], ms_combs: [0], ctildes: [-0.57643444756627604, 0.11208083948210676]}
    - {mu0: 0, rank: 1, ndensity: 2, num_ms_combs: 1, mus: [1], ns: [6], ls: [0], ms_combs: [0], ctildes: [0.68917144639054284, 0.16782300336464789]}
    - {mu0: 0, rank: 1, ndensity: 2, num_ms_combs: 1, mus: [1], ns: [7], ls: [0], ms_combs: [0], ctildes: [-0.50334707691187408, -0.59206188567394769]}
    - {mu0: 0, rank: 1, ndensity: 2, num_ms_combs: 1, mus: [1], ns: [8], ls: [0], ms_combs: [0], ctildes: [0.27512282096901791, 0.56508358930874181]}
    - {mu0: 0, rank: 1, ndensity: 2, num_ms_combs: 1, mus: [1], ns: [9], ls: [0], ms_combs: [0], ctildes: [-0.10370500371042116, -0.34156821164656997]}
    - {mu0: 0, rank: 1, ndensity: 2, num_ms_combs: 1, mus: [1], ns: [10], ls: [0], ms_combs: [0], ctildes: [0.017003584217926134, -0.070791809386921756]}
    - {mu0: 0, rank: 1, ndensity: 2, num_ms_combs: 1, mus: [1], ns: [11], ls: [0], ms_combs: [0], ctildes: [0.01795021560426114, 0.26263032423734001]}
    - {mu0: 0, rank: 1, ndensity: 2, num_ms_combs: 1, mus: [1], ns: [12], ls: [0], ms_combs: [0], ctildes: [-0.013174960630382138, -0.34844419105366042]}
    - {mu0: 0, rank: 1, ndensity: 2, num_ms_combs: 1, mus: [1], ns: [13], ls: [0], ms_combs: [0], ctildes: [0.010829967630329937, 0.20724931016136677]}
    - {mu0: 0, rank: 1, ndensity: 2, num_ms_combs: 1, mus: [1], ns: [14], ls: [0], ms_combs: [0], ctildes: [-0.0059883501496968243, -0.067169737556489445]}
    - {mu0: 0, rank: 1, ndensity: 2, num_ms_combs: 1, mus: [1], ns: [15], ls: [0], ms_combs: [0], ctildes: [0.0047653144746865632, -0.014500445869463479]}
    - {mu0: 0, rank: 2, ndensity: 2, num_ms_combs: 1, mus: [0, 0], ns: [1, 1], ls: [0, 0], ms_combs: [0, 0], ctildes: [0.57788490809100468, -1.8642896163994958]}
    - {mu0: 0, rank: 2, ndensity: 2, num_ms_combs: 2, mus: [0, 0], ns: [1, 1], ls: [1, 1], ms_combs: [0, 0, 1, -1], ctildes: [0.5846622101392881, 0.71222384067516953, -1.169324420278576, -1.4244476813503386]}
    - {mu0: 0, rank: 2, ndensity: 2, num_ms_combs: 3, mus: [0, 0], ns: [1, 1], ls: [2, 2], ms_combs: [0, 0, 1, -1, 2, -2], ctildes: [-0.086421657307649016, 0.28601309426414567, 0.17284331461529806, -0.57202618852829146, -0.17284331461529809, 0.57202618852829157]}
    - {mu0: 0, rank: 2, ndensity: 2, num_ms_combs: 4, mus: [0, 0], ns: [1, 1], ls: [3, 3], ms_combs: [0, 0, 1, -1, 2, -2, 3, -3], ctildes: [0.083221482068229463, -0.12405806853264806, -0.16644296413645893, 0.24811613706529612, 0.16644296413645893, -0.24811613706529606, -0.16644296413645893, 0.24811613706529606]}
    - {mu0: 0, rank: 2, ndensity: 2, num_ms_combs: 1, mus: [0, 0], ns: [1, 2], ls: [0, 0], ms_combs: [0, 0], ctildes: [0.048799415214123572, 1.0662166111244546]}
    - {mu0: 0, rank: 2, ndensity: 2, num_ms_combs: 2, mus: [0, 0], ns: [1, 2], ls: [1, 1], ms_combs: [0, 0, 1, -1], ctildes: [-0.20924488635907107, -0.46659638259636327, 0.41848977271814203, 0.93319276519272631]}
    - {mu0: 0, rank: 2, ndensity: 2, num_ms_combs: 3, mus: [0, 0], ns: [1, 2], ls: [2, 2], ms_combs: [0, 0, 1, -1, 2, -2], ctildes: [0.11131845414107215, 0.34342461939844032, -0.22263690828214433, -0.68684923879688076, 0.22263690828214439, 0.68684923879688087]}
    - {mu0: 0, rank: 2, ndensity: 2, num_ms_combs: 4, mus: [0, 0], ns: [1, 2], ls: [3, 3], ms_combs: [0, 0, 1, -1, 2, -2, 3, -3], ctildes: [-0.15543853589176798, 0.10241854772739692, 0.31087707178353596, -0.20483709545479384, -0.31087707178353591, 0.20483709545479381, 0.31087707178353591, -0.20483709545479381]}
    - {mu0: 0, rank: 2, ndensity: 2, num_ms_combs: 1, mus: [0, 0], ns: [1, 3], ls: [0, 0], ms_combs: [0, 0], ctildes: [0.0089732829343847423, -0.80887376121770405]}
    - {mu0: 0, rank: 2, ndensity: 2, num_ms_combs: 2, mus: [0, 0], ns: [1, 3], ls: [1, 1], ms_combs: [0, 0, 1, -1], ctildes: [0.48486188380365985, -0.68458500226854813, -0.9697237676073196, 1.369170004537096]}
    - {mu0: 0, rank: 2, ndensity: 2, num_ms_combs: 3, mus: [0, 0], ns: [1, 3], ls: [2, 2], ms_combs: [0, 0, 1, -1, 2, -2], ctildes: [-0.18376943728357417, 0.083371587759058202, 0.3675388745671484, -0.16674317551811643, -0.36753887456714845, 0.16674317551811646]}
    - {mu0: 0, rank: 2, ndensity: 2, num_ms_combs: 4, mus: [0, 0], ns: [1, 3], ls: [3, 3], ms_combs: [0, 0, 1, -1, 2, -2, 3, -3], ctildes: [0.084866424626870732, 0.031147784018053109, -0.16973284925374146, -0.062295568036106218, 0.16973284925374144, 0.062295568036106211, -0.16973284925374144, -0.062295568036106211]}
    - {mu0: 0, rank: 2, ndensity: 2, num_ms_combs: 1, mus: [0, 0], ns: [1, 4], ls: [0, 0], ms_combs: [0, 0], ctildes: [0.052028810994067996, -0.3627283125532082]}
    - {mu0: 0, rank: 2, ndensity: 2, num_ms_combs: 2, mus: [0, 0], ns: [1, 4], ls: [1, 1], ms_combs: [0, 0, 1, -1], ctildes: [0.22604300506518074, -0.33848856942581468, -0.45208601013036137, 0.67697713885162925]}
    - {mu0: 0, rank: 2, ndensity: 2, num_ms_combs: 3, mus: [0, 0], ns: [1, 4], ls: [2, 2], ms_combs: [0, 0, 1, -1, 2, -2], ctildes: [0.10389223643064754, -0.40749735245006463, -0.20778447286129512, 0.81499470490012937, 0.20778447286129517, -0.8149947049001296]}
    - {mu0: 0, rank: 2, ndensity: 2, num_ms_combs: 4, mus: [0, 0], ns: [1, 4], ls: [3, 3], ms_combs: [0, 0, 1, -1, 2, -2, 3, -3], ctildes: [-0.13394628436904829, -0.22855264641107506, 0.26789256873809658, 0.45710529282215012, -0.26789256873809658, -0.45710529282215007, 0.26789256873809658, 0.45710529282215007]}
    - {mu0: 0, rank: 2, ndensity: 2, num_ms_combs: 1, mus: [0, 0], ns: [2, 2], ls: [0, 0], ms_combs: [0, 0], ctildes: [-0.23608446779268266, 0.86843196757256425]}
    - {mu0: 0, rank: 2, ndensity: 2, num_ms_combs: 2, mus: [0, 0], ns: [2, 2], ls: [1, 1], ms_combs: [0, 0, 1, -1], ctildes: [-0.067963940961472624, -0.72072421678180232, 0.13592788192294522, 1.4414484335636044]}
    - {mu0: 0, rank: 2, ndensity: 2, num_ms_combs: 3, mus: [0, 0], ns: [2, 2], ls: [2, 2], ms_combs: [0, 0, 1, -1, 2, -2], ctildes: [-0.12639386757963034, 0.33296580355590333, 0.25278773515926067, -0.66593160711180677, -0.25278773515926073, 0.66593160711180699]}
    - {mu0: 0, rank: 2, ndensity: 2, num_ms_combs: 4, mus: [0, 0], ns: [2, 2], ls: [3, 3], ms_combs: [0, 0, 1, -1, 2, -2, 3, -3], ctildes: [0.093635688964793379, -0.18369846431798584, -0.18727137792958676, 0.36739692863597168, 0.18727137792958673, -0.36739692863597168, -0.18727137792958673, 0.36739692863597168]}
    - {mu0: 0, rank: 2, ndensity: 2, num_ms_combs: 1, mus: [0, 0], ns: [2, 3], ls: [0, 0], ms_combs: [0, 0], ctildes: [-0.053901552018720759, 0.85757430916360311]}
    - {mu0: 0, rank: 2, ndensity: 2, num_ms_combs: 2, mus: [0, 0], ns: [2, 3], ls: [1, 1], ms_combs: [0, 0, 1, -1], ctildes: [0.37601003442405606, 0.080887343453423535, -0.75202006884811201, -0.16177468690684704]}
    - {mu0: 0, rank: 2, ndensity: 2, num_ms_combs: 3, mus: [0, 0], ns: [2, 3], ls: [2, 2], ms_combs: [0, 0, 1, -1, 2, -2], ctildes: [0.14687135626223455, -0.13059320480700493, -0.29374271252446915, 0.26118640961400985, 0.29374271252446921, -0.26118640961400991]}
    - {mu0: 0, rank: 2, ndensity: 2, num_ms_combs: 4, mus: [0, 0], ns: [2, 3], ls: [3, 3], ms_combs: [0, 0, 1, -1, 2, -2, 3, -3], ctildes: [-0.11310778905399708, 0.25667546412453907, 0.22621557810799417, -0.51335092824907813, -0.22621557810799411, 0.51335092824907802, 0.22621557810799411, -0.51335092824907802]}
    - {mu0: 0, rank: 2, ndensity: 2, num_ms_combs: 1, mus: [0, 0], ns: [2, 4], ls: [0, 0], ms_combs: [0, 0], ctildes: [-0.0038390332342419387, -0.016683183925999531]}
    - {mu0: 0, rank: 2, ndensity: 2, num_ms_combs: 2, mus: [0, 0], ns: [2, 4], ls: [1, 1], ms_combs: [0, 0, 1, -1], ctildes: [-0.077712126223937625, -0.119704577980592, 0.15542425244787522, 0.23940915596118398]}
    - {mu0: 0, rank: 2, ndensity: 2, num_ms_combs: 3, mus: [0, 0], ns: [2, 4], ls: [2, 2], ms_combs: [0, 0, 1, -1, 2, -2], ctildes: [-0.064707116285074556, 0.066093915213267102, 0.12941423257014911, -0.1321878304265342, -0.12941423257014914, 0.13218783042653426]}
    - {mu0: 0, rank: 2, ndensity: 2, num_ms_combs: 4, mus: [0, 0], ns: [2, 4], ls: [3, 3], ms_combs: [0, 0, 1, -1, 2, -2, 3, -3], ctildes: [0.13873605931720279, 0.18359686149320598, -0.27747211863440557, -0.36719372298641195, 0.27747211863440552, 0.3671937229864119, -0.27747211863440552, -0.3671937229864119]}
    - {mu0: 0, rank: 2, ndensity: 2, num_ms_combs: 1, mus: [0, 0], ns: [3, 3], ls: [0, 0], ms_combs: [0, 0], ctildes: [0.049319209013144356, -1.119900373377787]}
    - {mu0: 0, rank: 2, ndensity: 2, num_ms_combs: 2, mus: [0, 0], ns: [3, 3], ls: [1, 1], ms_combs: [0, 0, 1, -1], ctildes: [-0.26432787627310977, 0.62317596898853411, 0.52865575254621944, -1.246351937977068]}
    - {mu0: 0, rank: 2, ndensity: 2, num_ms_combs: 3, mus: [0, 0], ns: [3, 3], ls: [2, 2], ms_combs: [0, 0, 1, -1, 2, -2], ctildes: [-0.025245000462459227, -0.33717270396329452, 0.050490000924918461, 0.67434540792658915, -0.050490000924918468, -0.67434540792658926]}
    - {mu0: 0, rank: 2, ndensity: 2, num_ms_combs: 4, mus: [0, 0], ns: [3, 3], ls: [3, 3], ms_combs: [0, 0, 1, -1, 2, -2, 3, -3], ctildes: [0.03516609364211639, -0.12062195589245132, -0.070332187284232781, 0.24124391178490265, 0.070332187284232767, -0.24124391178490262, -0.070332187284232767, 0.24124391178490262]}
    - {mu0: 0, rank: 2, ndensity: 2, num_ms_combs: 1, mus: [0, 0], ns: [3, 4], ls: [0, 0], ms_combs: [0, 0], ctildes: [-0.019145329454767095, 0.3124721585913578]}
    - {mu0: 0, rank: 2, ndensity: 2, num_ms_combs: 2, mus: [0, 0], ns: [3, 4], ls: [1, 1], ms_combs: [0, 0, 1, -1], ctildes: [0.11429531410043993, 0.31358530652639555, -0.22859062820087983, -0.62717061305279098]}
    - {mu0: 0, rank: 2, ndensity: 2, num_ms_combs: 3, mus: [0, 0], ns: [3, 4], ls: [2, 2], ms_combs: [0, 0, 1, -1, 2, -2], ctildes: [0.036950429741478663, 0.092808315205959904, -0.07390085948295734, -0.18561663041191984, 0.073900859482957354, 0.18561663041191989]}
    - {mu0: 0, rank: 2, ndensity: 2, num_ms_combs: 4, mus: [0, 0], ns: [3, 4], ls: [3, 3], ms_combs: [0, 0, 1, -1, 2, -2, 3, -3], ctildes: [-0.0754855680058127, -0.13203623916476359, 0.1509711360116254, 0.26407247832952718, -0.15097113601162537, -0.26407247832952713, 0.15097113601162537, 0.26407247832952713]}
    - {mu0: 0, rank: 2, ndensity: 2, num_ms_combs: 1, mus: [0, 0], ns: [4, 4], ls: [0, 0], ms_combs: [0, 0], ctildes: [0.0028531817522375225, -0.037611168297613774]}
    - {mu0: 0, rank: 2, ndensity: 2, num_ms_combs: 2, mus: [0, 0], ns: [4, 4], ls: [1, 1], ms_combs: [0, 0, 1, -1], ctildes: [0.00026814597287826885, 0.07821969193874137, -0.00053629194575653758, -0.15643938387748271]}
    - {mu0: 0, rank: 2, ndensity: 2, num_ms_combs: 3, mus: [0, 0], ns: [4, 4], ls: [2, 2], ms_combs: [0, 0, 1, -1, 2, -2], ctildes: [-0.013642987856922353, 0.030585961600942898, 0.02728597571384471, -0.061171923201885803, -0.027285975713844716, 0.061171923201885824]}
    - {mu0: 0, rank: 2, ndensity: 2, num_ms_combs: 4, mus: [0, 0], ns: [4, 4], ls: [3, 3], ms_combs: [0, 0, 1, -1, 2, -2, 3, -3], ctildes: [0.049828106290508468, 0.33405963641265196, -0.099656212581016937, -0.66811927282530392, 0.099656212581016923, 0.66811927282530381, -0.099656212581016923, -0.66811927282530381]}
    - {mu0: 0, rank: 2, ndensity: 2, num_ms_combs: 1, mus: [0, 1], ns: [1, 1], ls: [0, 0], ms_combs: [0, 0], ctildes: [-0.09049031080694403, 0.88565853048871401]}
    - {mu0: 0, rank: 2, ndensity: 2, num_ms_combs: 2, mus: [0, 1], ns: [1, 1], ls: [1, 1], ms_combs: [0, 0, 1, -1], ctildes: [-0.029543894544946769, 0.35664141370481339, 0.059087789089893532, -0.71328282740962667]}
    - {mu0: 0, rank: 2, ndensity: 2, num_ms_combs: 3, mus: [0, 1], ns: [1, 1], ls: [2, 2], ms_combs: [0, 0, 1, -1, 2, -2], ctildes: [0.12505123050982522, -0.31516734644752337, -0.2501024610196505, 0.63033469289504684, 0.25010246101965056, -0.63033469289504696]}
    - {mu0: 0, rank: 2, ndensity: 2, num_ms_combs: 4, mus: [0, 1], ns: [1, 1], ls: [3, 3], ms_combs: [0, 0, 1, -1, 2, -2, 3, -3], ctildes: [0.012229370362836819, 0.17688276322600091, -0.024458740725673639, -0.35376552645200182, 0.024458740725673635, 0.35376552645200182, -0.024458740725673635, -0.35376552645200182]}
    - {mu0: 0, rank: 2, ndensity: 2, num_ms_combs: 1, mus: [0, 1], ns: [1, 2], ls: [0, 0], ms_combs: [0, 0], ctildes: [0.23947012281613334, -1.2513787878949407]}
    - {mu0: 0, rank: 2, ndensity: 2, num_ms_combs: 2, mus: [0, 1], ns: [1, 2], ls: [1, 1], ms_combs: [0, 0, 1, -1], ctildes: [0.20303423323727565, -0.15210634781864002, -0.40606846647455125, 0.30421269563727998]}
    - {mu0: 0, rank: 2, ndensity: 2, num_ms_combs: 3, mus: [0, 1], ns: [1, 2], ls: [2, 2], ms_combs: [0, 0, 1, -1, 2, -2], ctildes: [0.043841040708306203, -0.014782716219664602, -0.087682081416612406, 0.029565432439329208, 0.087682081416612434, -0.029565432439329214]}
    - {mu0: 0, rank: 2, ndensity: 2, num_ms_combs: 4, mus: [0, 1], ns: [1, 2], ls: [3, 3], ms_combs: [0, 0, 1, -1, 2, -2, 3, -3], ctildes: [0.035490609474648521, -0.2034126643901128, -0.070981218949297042, 0.40682532878022559, 0.070981218949297029, -0.40682532878022554, -0.070981218949297029, 0.40682532878022554]}
    - {mu0: 0, rank: 2, ndensity: 2, num_ms_combs: 1, mus: [0, 1], ns: [1, 3], ls: [0, 0], ms_combs: [0, 0], ctildes: [-0.075568191949164837, 1.0169505340795695]}
    - {mu0: 0, rank: 2, ndensity: 2, num_ms_combs: 2, mus: [0, 1], ns: [1, 3], ls: [1, 1], ms_combs: [0, 0, 1, -1], ctildes: [0.3315496913668719, -0.21063408117666965, -0.66309938273374369, 0.42126816235333925]}
    - {mu0: 0, rank: 2, ndensity: 2, num_ms_combs: 3, mus: [0, 1], ns: [1, 3], ls: [2, 2], ms_combs: [0, 0, 1, -1, 2, -2], ctildes: [0.049636588414663681, 0.45418007839006769, -0.099273176829327375, -0.9083601567801356, 0.099273176829327403, 0.90836015678013582]}
    - {mu0: 0, rank: 2, ndensity: 2, num_ms_combs: 4, mus: [0, 1], ns: [1, 3], ls: [3, 3], ms_combs: [0, 0, 1, -1, 2, -2, 3, -3], ctildes: [0.033699242038674575, -0.025842625020322862, -0.067398484077349149, 0.051685250040645725, 0.067398484077349136, -0.051685250040645718, -0.067398484077349136, 0.051685250040645718]}
    - {mu0: 0, rank: 2, ndensity: 2, num_ms_combs: 1, mus: [0, 1], ns: [1, 4], ls: [0, 0], ms_combs: [0, 0], ctildes: [-0.062160425082494773, 0.46672627891764362]}
    - {mu0: 0, rank: 2, ndensity: 2, num_ms_combs: 2, mus: [0, 1], ns: [1, 4], ls: [1, 1], ms_combs: [0, 0, 1, -1], ctildes: [0.016497121773474458, -0.22815782826095934, -0.032994243546948916, 0.45631565652191863]}
    - {mu0: 0, rank: 2, ndensity: 2, num_ms_combs: 3, mus: [0, 1], ns: [1, 4], ls: [2, 2], ms_combs: [0, 0, 1, -1, 2, -2], ctildes: [-0.054761361650490815, -0.12290187563133152, 0.10952272330098164, 0.24580375126266307, -0.10952272330098167, -0.24580375126266313]}
    - {mu0: 0, rank: 2, ndensity: 2, num_ms_combs: 4, mus: [0, 1], ns: [1, 4], ls: [3, 3], ms_combs: [0, 0, 1, -1, 2, -2, 3, -3], ctildes: [0.0031349368516933669, -0.07410025216281621, -0.0062698737033867339, 0.14820050432563242, 0.006269873703386733, -0.14820050432563239, -0.006269873703386733, 0.14820050432563239]}
    - {mu0: 0, rank: 2, ndensity: 2, num_ms_combs: 1, mus: [0, 1], ns: [2, 1], ls: [0, 0], ms_combs: [0, 0], ctildes: [0.0075368442592614448, 0.046797134652346362]}
    - {mu0: 0, rank: 2, ndensity: 2, num_ms_combs: 2, mus: [0, 1], ns: [2, 1], ls: [1, 1], ms_combs: [0, 0, 1, -1], ctildes: [-0.058753153246784443, 0.40772214556523129, 0.11750630649356886, -0.81544429113046235]}
    - {mu0: 0, rank: 2, ndensity: 2, num_ms_combs: 3, mus: [0, 1], ns: [2, 1], ls: [2, 2], ms_combs: [0, 0, 1, -1, 2, -2], ctildes: [5.2719798017229861e-05, -0.25596057624200957, -0.00010543959603445973, 0.51192115248401926, 0.00010543959603445976, -0.51192115248401937]}
    - {mu0: 0, rank: 2, ndensity: 2, num_ms_combs: 4, mus: [0, 1], ns: [2, 1], ls: [3, 3], ms_combs: [0, 0, 1, -1, 2, -2, 3, -3], ctildes: [-0.037547430930740408, -0.02243915448652032, 0.075094861861480816, 0.04487830897304064, -0.075094861861480802, -0.044878308973040633, 0.075094861861480802, 0.044878308973040633]}
    - {mu0: 0, rank: 2, ndensity: 2, num_ms_combs: 1, mus: [0, 1], ns: [2, 2], ls: [0, 0], ms_combs: [0, 0], ctildes: [-0.35310210494726041, 1.350483387269418]}
    - {mu0: 0, rank: 2, ndensity: 2, num_ms_combs: 2, mus: [0, 1], ns: [2, 2], ls: [1, 1], ms_combs: [0, 0, 1, -1], ctildes: [-0.1813790867495168, 0.22127290077856826, 0.3627581734990335, -0.44254580155713641]}
    - {mu0: 0, rank: 2, ndensity: 2, num_ms_combs: 3, mus: [0, 1], ns: [2, 2], ls: [2, 2], ms_combs: [0, 0, 1, -1, 2, -2], ctildes: [-0.076989190936616672, 0.39412669296785902, 0.15397838187323337, -0.78825338593571814, -0.1539783818732334, 0.78825338593571825]}
    - {mu0: 0, rank: 2, ndensity: 2, num_ms_combs: 4, mus: [0, 1], ns: [2, 2], ls: [3, 3], ms_combs: [0, 0, 1, -1, 2, -2, 3, -3], ctildes: [-0.00075271224933609897, -0.18886564509821277, 0.0015054244986721979, 0.37773129019642554, -0.0015054244986721977, -0.37773129019642548, 0.0015054244986721977, 0.37773129019642548]}
    - {mu0: 0, rank: 2, ndensity: 2, num_ms_combs: 1, mus: [0, 1], ns: [2, 3], ls: [0, 0], ms_combs: [0, 0], ctildes: [0.020083999397138372, -0.56290834234073361]}
    - {mu0: 0, rank: 2, ndensity: 2, num_ms_combs: 2, mus: [0, 1], ns: [2, 3], ls: [1, 1], ms_combs: [0, 0, 1, -1], ctildes: [-0.31038211212549238, -0.20535277169321486, 0.62076422425098465, 0.41070554338642967]}
    - {mu0: 0, rank: 2, ndensity: 2, num_ms_combs: 3, mus: [0, 1], ns: [2, 3], ls: [2, 2], ms_combs: [0, 0, 1, -1, 2, -2], ctildes: [-0.066564087010170192, -0.17121694262523959, 0.13312817402034038, 0.34243388525047924, -0.13312817402034044, -0.3424338852504793]}
    - {mu0: 0, rank: 2, ndensity: 2, num_ms_combs: 4, mus: [0, 1], ns: [2, 3], ls: [3, 3], ms_combs: [0, 0, 1, -1, 2, -2, 3, -3], ctildes: [-0.047570613687618286, 0.24656969144450427, 0.095141227375236573, -0.49313938288900855, -0.095141227375236559, 0.49313938288900849, 0.095141227375236559, -0.49313938288900849]}
    - {mu0: 0, rank: 2, ndensity: 2, num_ms_combs: 1, mus: [0, 1], ns: [2, 4], ls: [0, 0], ms_combs: [0, 0], ctildes: [-0.047441247216031678, 0.50741818316806597]}
    - {mu0: 0, rank: 2, ndensity: 2, num_ms_combs: 2, mus: [0, 1], ns: [2, 4], ls: [1, 1], ms_combs: [0, 0, 1, -1], ctildes: [-0.037581409173807492, 0.29052217990058038, 0.075162818347614971, -0.58104435980116065]}
    - {mu0: 0, rank: 2, ndensity: 2, num_ms_combs: 3, mus: [0, 1], ns: [2, 4], ls: [2, 2], ms_combs: [0, 0, 1, -1, 2, -2], ctildes: [0.11397561800989776, -0.35094460395013244, -0.22795123601979556, 0.70188920790026499, 0.22795123601979561, -0.70188920790026521]}
    - {mu0: 0, rank: 2, ndensity: 2, num_ms_combs: 4, mus: [0, 1], ns: [2, 4], ls: [3, 3], ms_combs: [0, 0, 1, -1, 2, -2, 3, -3], ctildes: [-0.019445237862660981, 0.11248914613201551, 0.038890475725321963, -0.22497829226403102, -0.038890475725321963, 0.22497829226403096, 0.038890475725321963, -0.22497829226403096]}
    - {mu0: 0, rank: 2, ndensity: 2, num_ms_combs: 1, mus: [0, 1], ns: [3, 1], ls: [0, 0], ms_combs: [0, 0], ctildes: [-0.41304146731898411, 1.4143311484863719]}
    - {mu0: 0, rank: 2, ndensity: 2, num_ms_combs: 2, mus: [0, 1], ns: [3, 1], ls: [1, 1], ms_combs: [0, 0, 1, -1], ctildes: [-0.021013953747239321, -0.24727461983118595, 0.042027907494478635, 0.4945492396623718]}
    - {mu0: 0, rank: 2, ndensity: 2, num_ms_combs: 3, mus: [0, 1], ns: [3, 1], ls: [2, 2], ms_combs: [0, 0, 1, -1, 2, -2], ctildes: [0.0072653621318566715, 0.066660874820323179, -0.014530724263713345, -0.13332174964064639, 0.014530724263713348, 0.13332174964064641]}
    - {mu0: 0, rank: 2, ndensity: 2, num_ms_combs: 4, mus: [0, 1], ns: [3, 1], ls: [3, 3], ms_combs: [0, 0, 1, -1, 2, -2, 3, -3], ctildes: [0.028824515324446905, -0.033476027085813931, -0.057649030648893811, 0.066952054171627862, 0.057649030648893797, -0.066952054171627862, -0.057649030648893797, 0.066952054171627862]}
    - {mu0: 0, rank: 2, ndensity: 2, num_ms_combs: 1, mus: [0, 1], ns: [3, 2], ls: [0, 0], ms_combs: [0, 0], ctildes: [-0.053126119234933711, -0.066499122009297279]}
    - {mu0: 0, rank: 2, ndensity: 2, num_ms_combs: 2, mus: [0, 1], ns: [3, 2], ls: [1, 1], ms_combs: [0, 0, 1, -1], ctildes: [0.12442948059795746, 0.039790209344318379, -0.24885896119591486, -0.079580418688636745]}
    - {mu0: 0, rank: 2, ndensity: 2, num_ms_combs: 3, mus: [0, 1], ns: [3, 2], ls: [2, 2], ms_combs: [0, 0, 1, -1, 2, -2], ctildes: [-0.022478969183505466, 0.33590105642261647, 0.044957938367010938, -0.67180211284523295, -0.044957938367010945, 0.67180211284523317]}
    - {mu0: 0, rank: 2, ndensity: 2, num_ms_combs: 4, mus: [0, 1], ns: [3, 2], ls: [3, 3], ms_combs: [0, 0, 1, -1, 2, -2, 3, -3], ctildes: [0.013093703061181409, 0.077459549253868179, -0.026187406122362818, -0.15491909850773636, 0.026187406122362814, 0.15491909850773633, -0.026187406122362814, -0.15491909850773633]}
    - {mu0: 0, rank: 2, ndensity: 2, num_ms_combs: 1, mus: [0, 1], ns: [3, 3], ls: [0, 0], ms_combs: [0, 0], ctildes: [-0.2166639689899881, 0.4421587010497558]}
    - {mu0: 0, rank: 2, ndensity: 2, num_ms_combs: 2, mus: [0, 1], ns: [3, 3], ls: [1, 1], ms_combs: [0, 0, 1, -1], ctildes: [0.26821497973306396, 0.013088952757354737, -0.53642995946612781, -0.026177905514709471]}
    - {mu0: 0, rank: 2, ndensity: 2, num_ms_combs: 3, mus: [0, 1], ns: [3, 3], ls: [2, 2], ms_combs: [0, 0, 1, -1, 2, -2], ctildes: [0.11600964204637285, -0.53279273349712031, -0.23201928409274572, 1.0655854669942408, 0.2320192840927458, -1.0655854669942411]}
    - {mu0: 0, rank: 2, ndensity: 2, num_ms_combs: 4, mus: [0, 1], ns: [3, 3], ls: [3, 3], ms_combs: [0, 0, 1, -1, 2, -2, 3, -3], ctildes: [0.022710168606226881, -0.20371952576589861, -0.045420337212453761, 0.40743905153179721, 0.045420337212453754, -0.40743905153179716, -0.045420337212453754, 0.40743905153179716]}
    - {mu0: 0, rank: 2, ndensity: 2, num_ms_combs: 1, mus: [0, 1], ns: [3, 4], ls: [0, 0], ms_combs: [0, 0], ctildes: [0.030785996170475213, 0.15767703461769844]}
    - {mu0: 0, rank: 2, ndensity: 2, num_ms_combs: 2, mus: [0, 1], ns: [3, 4], ls: [1, 1], ms_combs: [0, 0, 1, -1], ctildes: [-0.020080794005457356, 0.092407261754980097, 0.040161588010914705, -0.18481452350996017]}
    - {mu0: 0, rank: 2, ndensity: 2, num_ms_combs: 3, mus: [0, 1], ns: [3, 4], ls: [2, 2], ms_combs: [0, 0, 1, -1, 2, -2], ctildes: [-0.031757334047447093, 0.059064905350368319, 0.0635146680948942, -0.11812981070073665, -0.063514668094894214, 0.11812981070073668]}
    - {mu0: 0, rank: 2, ndensity: 2, num_ms_combs: 4, mus: [0, 1], ns: [3, 4], ls: [3, 3], ms_combs: [0, 0, 1, -1, 2, -2, 3, -3], ctildes: [0.030076278762852245, -0.14925706605758216, -0.060152557525704489, 0.29851413211516431, 0.060152557525704475, -0.29851413211516425, -0.060152557525704475, 0.29851413211516425]}
    - {mu0: 0, rank: 2, ndensity: 2, num_ms_combs: 1, mus: [0, 1], ns: [4, 1], ls: [0, 0], ms_combs: [0, 0], ctildes: [0.02819114222736372, 0.048033459797280936]}
    - {mu0: 0, rank: 2, ndensity: 2, num_ms_combs: 2, mus: [0, 1], ns: [4, 1], ls: [1, 1], ms_combs: [0, 0, 1, -1], ctildes: [-0.015477375403227875, -0.013668465848226211, 0.030954750806455742, 0.027336931696452418]}
    - {mu0: 0, rank: 2, ndensity: 2, num_ms_combs: 3, mus: [0, 1], ns: [4, 1], ls: [2, 2], ms_combs: [0, 0, 1, -1, 2, -2], ctildes: [0.0048179685019787135, -0.14499263383794636, -0.0096359370039574288, 0.28998526767589278, 0.0096359370039574305, -0.28998526767589283]}
    - {mu0: 0, rank: 2, ndensity: 2, num_ms_combs: 4, mus: [0, 1], ns: [4, 1], ls: [3, 3], ms_combs: [0, 0, 1, -1, 2, -2, 3, -3], ctildes: [-0.019650325360289662, -0.17739888901966144, 0.039300650720579325, 0.35479777803932289, -0.039300650720579318, -0.35479777803932283, 0.039300650720579318, 0.35479777803932283]}
    - {mu0: 0, rank: 2, ndensity: 2, num_ms_combs: 1, mus: [0, 1], ns: [4, 2], ls: [0, 0], ms_combs: [0, 0], ctildes: [-0.010263560845201877, 0.19586141599413548]}
    - {mu0: 0, rank: 2, ndensity: 2, num_ms_combs: 2, mus: [0, 1], ns: [4, 2], ls: [1, 1], ms_combs: [0, 0, 1, -1], ctildes: [0.0020358429908475008, 0.0006697808525307369, -0.0040716859816950007, -0.0013395617050614734]}
    - {mu0: 0, rank: 2, ndensity: 2, num_ms_combs: 3, mus: [0, 1], ns: [4, 2], ls: [2, 2], ms_combs: [0, 0, 1, -1, 2, -2], ctildes: [0.010743635667859268, -0.10737017828760582, -0.021487271335718535, 0.21474035657521168, 0.021487271335718542, -0.21474035657521173]}
    - {mu0: 0, rank: 2, ndensity: 2, num_ms_combs: 4, mus: [0, 1], ns: [4, 2], ls: [3, 3], ms_combs: [0, 0, 1, -1, 2, -2, 3, -3], ctildes: [-0.03269606770900535, 0.1023157784043084, 0.0653921354180107, -0.2046315568086168, -0.0653921354180107, 0.20463155680861678, 0.0653921354180107, -0.20463155680861678]}
    - {mu0: 0, rank: 2, ndensity: 2, num_ms_combs: 1, mus: [0, 1], ns: [4, 3], ls: [0, 0], ms_combs: [0, 0], ctildes: [-0.016431334534465637, 0.37781797681661528]}
    - {mu0: 0, rank: 2, ndensity: 2, num_ms_combs: 2, mus: [0, 1], ns: [4, 3], ls: [1, 1], ms_combs: [0, 0, 1, -1], ctildes: [-0.017576469337797596, -0.096315641983002534, 0.035152938675595186, 0.19263128396600504]}
    - {mu0: 0, rank: 2, ndensity: 2, num_ms_combs: 3, mus: [0, 1], ns: [4, 3], ls: [2, 2], ms_combs: [0, 0, 1, -1, 2, -2], ctildes: [-0.025933136653771859, -0.0098593907407154447, 0.051866273307543724, 0.019718781481430893, -0.051866273307543738, -0.019718781481430896]}
    - {mu0: 0, rank: 2, ndensity: 2, num_ms_combs: 4, mus: [0, 1], ns: [4, 3], ls: [3, 3], ms_combs: [0, 0, 1, -1, 2, -2, 3, -3], ctildes: [-0.030444654957962704, 0.062503344345183648, 0.060889309915925408, -0.1250066886903673, -0.060889309915925401, 0.1250066886903673, 0.060889309915925401, -0.1250066886903673]}
    - {mu0: 0, rank: 2, ndensity: 2, num_ms_combs: 1, mus: [0, 1], ns: [4, 4], ls: [0, 0], ms_combs: [0, 0], ctildes: [0.0085396603860091267, -0.11801797980826793]}
    - {mu0: 0, rank: 2, ndensity: 2, num_ms_combs: 2, mus: [0, 1], ns: [4, 4], ls: [1, 1], ms_combs: [0, 0, 1, -1], ctildes: [-0.027861451317414462, 0.21144107258550032, 0.055722902634828909, -0.42288214517100053]}
    - {mu0: 0, rank: 2, ndensity: 2, num_ms_combs: 3, mus: [0, 1], ns: [4, 4], ls: [2, 2], ms_combs: [0, 0, 1, -1, 2, -2], ctildes: [0.026544671614461671, -0.074881485350304505, -0.05308934322892335, 0.14976297070060904, 0.053089343228923364, -0.14976297070060907]}
    - {mu0: 0, rank: 2, ndensity: 2, num_ms_combs: 4, mus: [0, 1], ns: [4, 4], ls: [3, 3], ms_combs: [0, 0, 1, -1, 2, -2, 3, -3], ctildes: [-0.024053297520719955, 0.17528135783975293, 0.048106595041439909, -0.35056271567950587, -0.048106595041439902, 0.35056271567950581, 0.048106595041439902, -0.35056271567950581]}
    - {mu0: 0, rank: 2, ndensity: 2, num_ms_combs: 1, mus: [1, 1], ns: [1, 1], ls: [0, 0], ms_combs: [0, 0], ctildes: [0.48439405929210222, -0.63143800858624155]}
    - {mu0: 0, rank: 2, ndensity: 2, num_ms_combs: 2, mus: [1, 1], ns: [1, 1], ls: [1, 1], ms_combs: [0, 0, 1, -1], ctildes: [0.14716718902588141, -0.05185425769630473, -0.29433437805176277, 0.10370851539260945]}
    - {mu0: 0, rank: 2, ndensity: 2, num_ms_combs: 3, mus: [1, 1], ns: [1, 1], ls: [2, 2], ms_combs: [0, 0, 1, -1, 2, -2], ctildes: [0.15060576823802774, -0.37578701534330139, -0.30121153647605553, 0.75157403068660278, 0.30121153647605559, -0.751574030686603]}
    - {mu0: 0, rank: 2, ndensity: 2, num_ms_combs: 4, mus: [1, 1], ns: [1, 1], ls: [3, 3], ms_combs: [0, 0, 1, -1, 2, -2, 3, -3], ctildes: [-0.0073888695631800132, -0.17155502460838673, 0.014777739126360026, 0.34311004921677346, -0.014777739126360023, -0.34311004921677341, 0.014777739126360023, 0.34311004921677341]}
    - {mu0: 0, rank: 2, ndensity: 2, num_ms_combs: 1, mus: [1, 1], ns: [1, 2], ls: [0, 0], ms_combs: [0, 0], ctildes: [0.28219534620258385, -0.58894208950983262]}
    - {mu0: 0, rank: 2, ndensity: 2, num_ms_combs: 2, mus: [1, 1], ns: [1, 2], ls: [1, 1], ms_combs: [0, 0, 1, -1], ctildes: [-0.042623499123662971, -0.014892893914687289, 0.085246998247325928, 0.029785787829374574]}
    - {mu0: 0, rank: 2, ndensity: 2, num_ms_combs: 3, mus: [1, 1], ns: [1, 2], ls: [2, 2], ms_combs: [0, 0, 1, -1, 2, -2], ctildes: [-0.041528036165129331, -0.49899043263365339, 0.083056072330258676, 0.99798086526730689, -0.083056072330258704, -0.99798086526730712]}
    - {mu0: 0, rank: 2, ndensity: 2, num_ms_combs: 4, mus: [1, 1], ns: [1, 2], ls: [3, 3], ms_combs: [0, 0, 1, -1, 2, -2, 3, -3], ctildes: [0.03100175214814407, 0.054257778552523596, -0.062003504296288141, -0.10851555710504719, 0.062003504296288127, 0.10851555710504718, -0.062003504296288127, -0.10851555710504718]}
    - {mu0: 0, rank: 2, ndensity: 2, num_ms_combs: 1, mus: [1, 1], ns: [1, 3], ls: [0, 0], ms_combs: [0, 0], ctildes: [0.4284099467118499, 0.71341100844501404]}
    - {mu0: 0, rank: 2, ndensity: 2, num_ms_combs: 2, mus: [1, 1], ns: [1, 3], ls: [1, 1], ms_combs: [0, 0, 1, -1], ctildes: [0.33201021802280983, -0.019427348123067921, -0.66402043604561956, 0.038854696246135835]}
    - {mu0: 0, rank: 2, ndensity: 2, num_ms_combs: 3, mus: [1, 1], ns: [1, 3], ls: [2, 2], ms_combs: [0, 0, 1, -1, 2, -2], ctildes: [0.16239820326229468, 0.16204939476761065, -0.32479640652458941, -0.32409878953522137, 0.32479640652458952, 0.32409878953522148]}
    - {mu0: 0, rank: 2, ndensity: 2, num_ms_combs: 4, mus: [1, 1], ns: [1, 3], ls: [3, 3], ms_combs: [0, 0, 1, -1, 2, -2, 3, -3], ctildes: [-0.01815802336101301, 0.023074629424584568, 0.03631604672202602, -0.046149258849169136, -0.036316046722026013, 0.046149258849169129, 0.036316046722026013, -0.046149258849169129]}
    - {mu0: 0, rank: 2, ndensity: 2, num_ms_combs: 1, mus: [1, 1], ns: [1, 4], ls: [0, 0], ms_combs: [0, 0], ctildes: [-0.18286244254938289, 0.15557477815908799]}
    - {mu0: 0, rank: 2, ndensity: 2, num_ms_combs: 2, mus: [1, 1], ns: [1, 4], ls: [1, 1], ms_combs: [0, 0, 1, -1], ctildes: [-0.014590778135588043, -0.072773013928405794, 0.029181556271176082, 0.14554602785681156]}
    - {mu0: 0, rank: 2, ndensity: 2, num_ms_combs: 3, mus: [1, 1], ns: [1, 4], ls: [2, 2], ms_combs: [0, 0, 1, -1, 2, -2], ctildes: [-0.026685513302510091, -0.068941635291218259, 0.053371026605020189, 0.13788327058243655, -0.053371026605020203, -0.13788327058243657]}
    - {mu0: 0, rank: 2, ndensity: 2, num_ms_combs: 4, mus: [1, 1], ns: [1, 4], ls: [3, 3], ms_combs: [0, 0, 1, -1, 2, -2, 3, -3], ctildes: [0.028563533351548501, -0.17295314229611355, -0.057127066703097001, 0.34590628459222711, 0.057127066703096994, -0.34590628459222705, -0.057127066703096994, 0.34590628459222705]}
    - {mu0: 0, rank: 2, ndensity: 2, num_ms_combs: 1, mus: [1, 1], ns: [2, 2], ls: [0, 0], ms_combs: [0, 0], ctildes: [-0.10080464751608881, 0.11960339827301623]}
    - {mu0: 0, rank: 2, ndensity: 2, num_ms_combs: 2, mus: [1, 1], ns: [2, 2], ls: [1, 1], ms_combs: [0, 0, 1, -1], ctildes: [0.12497813331708833, -0.16485287390330347, -0.24995626663417661, 0.32970574780660689]}
    - {mu0: 0, rank: 2, ndensity: 2, num_ms_combs: 3, mus: [1, 1], ns: [2, 2], ls: [2, 2], ms_combs: [0, 0, 1, -1, 2, -2], ctildes: [0.051682275690875509, 0.024136767234719612, -0.10336455138175103, -0.04827353446943923, 0.10336455138175105, 0.048273534469439237]}
    - {mu0: 0, rank: 2, ndensity: 2, num_ms_combs: 4, mus: [1, 1], ns: [2, 2], ls: [3, 3], ms_combs: [0, 0, 1, -1, 2, -2, 3, -3], ctildes: [0.018537541380865389, -0.19493465806514554, -0.037075082761730778, 0.38986931613029108, 0.037075082761730771, -0.38986931613029102, -0.037075082761730771, 0.38986931613029102]}
    - {mu0: 0, rank: 2, ndensity: 2, num_ms_combs: 1, mus: [1, 1], ns: [2, 3], ls: [0, 0], ms_combs: [0, 0], ctildes: [0.10728450739799995, -0.61683190764684148]}
    - {mu0: 0, rank: 2, ndensity: 2, num_ms_combs: 2, mus: [1, 1], ns: [2, 3], ls: [1, 1], ms_combs: [0, 0, 1, -1], ctildes: [-0.2615626005982909, -0.2869495170520428, 0.52312520119658179, 0.57389903410408549]}
    - {mu0: 0, rank: 2, ndensity: 2, num_ms_combs: 3, mus: [1, 1], ns: [2, 3], ls: [2, 2], ms_combs: [0, 0, 1, -1, 2, -2], ctildes: [-0.1661241168542805, 0.15326587646532075, 0.33224823370856105, -0.30653175293064155, -0.3322482337085611, 0.30653175293064167]}
    - {mu0: 0, rank: 2, ndensity: 2, num_ms_combs: 4, mus: [1, 1], ns: [2, 3], ls: [3, 3], ms_combs: [0, 0, 1, -1, 2, -2, 3, -3], ctildes: [0.044357021412301682, -0.018316177356260309, -0.088714042824603365, 0.036632354712520618, 0.088714042824603351, -0.036632354712520611, -0.088714042824603351, 0.036632354712520611]}
    - {mu0: 0, rank: 2, ndensity: 2, num_ms_combs: 1, mus: [1, 1], ns: [2, 4], ls: [0, 0], ms_combs: [0, 0], ctildes: [-0.12602007874361415, 0.42375906531818619]}
    - {mu0: 0, rank: 2, ndensity: 2, num_ms_combs: 2, mus: [1, 1], ns: [2, 4], ls: [1, 1], ms_combs: [0, 0, 1, -1], ctildes: [-0.020692649841022932, 0.18478651339662022, 0.041385299682045858, -0.36957302679324039]}
    - {mu0: 0, rank: 2, ndensity: 2, num_ms_combs: 3, mus: [1, 1], ns: [2, 4], ls: [2, 2], ms_combs: [0, 0, 1, -1, 2, -2], ctildes: [0.083010845702501945, -0.31877782354988882, -0.16602169140500392, 0.63755564709977774, 0.16602169140500395, -0.63755564709977786]}
    - {mu0: 0, rank: 2, ndensity: 2, num_ms_combs: 4, mus: [1, 1], ns: [2, 4], ls: [3, 3], ms_combs: [0, 0, 1, -1, 2, -2, 3, -3], ctildes: [-0.033070533981610299, 0.16839780185291328, 0.066141067963220598, -0.33679560370582656, -0.066141067963220584, 0.33679560370582656, 0.066141067963220584, -0.33679560370582656]}
    - {mu0: 0, rank: 2, ndensity: 2, num_ms_combs: 1, mus: [1, 1], ns: [3, 3], ls: [0, 0], ms_combs: [0, 0], ctildes: [0.043116252575644318, 0.57123758000009872]}
    - {mu0: 0, rank: 2, ndensity: 2, num_ms_combs: 2, mus: [1, 1], ns: [3, 3], ls: [1, 1], ms_combs: [0, 0, 1, -1], ctildes: [0.24159190796977692, 0.23796811922219771, -0.48318381593955373, -0.47593623844439531]}
    - {mu0: 0, rank: 2, ndensity: 2, num_ms_combs: 3, mus: [1, 1], ns: [3, 3], ls: [2, 2], ms_combs: [0, 0, 1, -1, 2, -2], ctildes: [0.072272387128935647, 0.11470387727316894, -0.14454477425787129, -0.22940775454633791, 0.14454477425787135, 0.22940775454633797]}
    - {mu0: 0, rank: 2, ndensity: 2, num_ms_combs: 4, mus: [1, 1], ns: [3, 3], ls: [3, 3], ms_combs: [0, 0, 1, -1, 2, -2, 3, -3], ctildes: [-0.027702814674504909, 0.16686438180912955, 0.055405629349009819, -0.33372876361825909, -0.055405629349009812, 0.33372876361825904, 0.055405629349009812, -0.33372876361825904]}
    - {mu0: 0, rank: 2, ndensity: 2, num_ms_combs: 1, mus: [1, 1], ns: [3, 4], ls: [0, 0], ms_combs: [0, 0], ctildes: [-0.1789137785929239, 0.074439867521064629]}
    - {mu0: 0, rank: 2, ndensity: 2, num_ms_combs: 2, mus: [1, 1], ns: [3, 4], ls: [1, 1], ms_combs: [0, 0, 1, -1], ctildes: [0.01254583099876949, -0.19201779828513055, -0.025091661997538973, 0.38403559657026104]}
    - {mu0: 0, rank: 2, ndensity: 2, num_ms_combs: 3, mus: [1, 1], ns: [3, 4], ls: [2, 2], ms_combs: [0, 0, 1, -1, 2, -2], ctildes: [0.0022695117189195139, -0.13506279118705652, -0.0045390234378390277, 0.2701255823741131, 0.0045390234378390286, -0.27012558237411316]}
    - {mu0: 0, rank: 2, ndensity: 2, num_ms_combs: 4, mus: [1, 1], ns: [3, 4], ls: [3, 3], ms_combs: [0, 0, 1, -1, 2, -2, 3, -3], ctildes: [0.047496808295053997, -0.2626573154636842, -0.094993616590107993, 0.52531463092736841, 0.094993616590107979, -0.5253146309273683, -0.094993616590107979, 0.5253146309273683]}
    - {mu0: 0, rank: 2, ndensity: 2, num_ms_combs: 1, mus: [1, 1], ns: [4, 4], ls: [0, 0], ms_combs: [0, 0], ctildes: [-0.0073627592785883867, 0.25167427908609286]}
    - {mu0: 0, rank: 2, ndensity: 2, num_ms_combs: 2, mus: [1, 1], ns: [4, 4], ls: [1, 1], ms_combs: [0, 0, 1, -1], ctildes: [-0.006264711950849421, 0.048591978393842793, 0.01252942390169884, -0.097183956787685558]}
    - {mu0: 0, rank: 2, ndensity: 2, num_ms_combs: 3, mus: [1, 1], ns: [4, 4], ls: [2, 2], ms_combs: [0, 0, 1, -1, 2, -2], ctildes: [-0.0022779220591278258, -0.017355655471103664, 0.0045558441182556525, 0.034711310942207335, -0.0045558441182556534, -0.034711310942207342]}
    - {mu0: 0, rank: 2, ndensity: 2, num_ms_combs: 4, mus: [1, 1], ns: [4, 4], ls: [3, 3], ms_combs: [0, 0, 1, -1, 2, -2, 3, -3], ctildes: [-0.011102362204692828, 0.068920512246149271, 0.022204724409385656, -0.13784102449229854, -0.022204724409385652, 0.13784102449229854, 0.022204724409385652, -0.13784102449229854]}
    - {mu0: 0, rank: 3, ndensity: 2, num_ms_combs: 1, mus: [0, 0, 0], ns: [1, 1, 1], ls: [0, 0, 0], ms_combs: [0, 0, 0], ctildes: [-0.18488537063176846, 0.74381810738272414]}
    - {mu0: 0, rank: 3, ndensity: 2, num_ms_combs: 2, mus: [0, 0, 0], ns: [1, 1, 1], ls: [0, 1, 1], ms_combs: [0, 0, 0, 0, 1, -1], ctildes: [-0.099478450219618403, -0.085617356813169759, 0.19895690043923678, 0.17123471362633949]}
    - {mu0: 0, rank: 3, ndensity: 2, num_ms_combs: 3, mus: [0, 0, 0], ns: [1, 1, 1], ls: [0, 2, 2], ms_combs: [0, 0, 0, 0, 1, -1, 0, 2, -2], ctildes: [-0.028435541091845432, 0.18678418578917028, 0.056871082183690871, -0.37356837157834061, -0.056871082183690885, 0.37356837157834066]}
    - {mu0: 0, rank: 3, ndensity: 2, num_ms_combs: 4, mus: [0, 0, 0], ns: [1, 1, 1], ls: [1, 1, 2], ms_combs: [-1, 1, 0, 0, 0, 0, 0, 1, -1, 1, 1, -2], ctildes: [-0.038686408522875609, -0.3445496087484855, -0.038686408522875602, -0.34454960874848545, 0.1340136502479724, 1.1935548561607101, -0.094761960861903541, -0.8439707325093726]}
    - {mu0: 0, rank: 3, ndensity: 2, num_ms_combs: 5, mus: [0, 0, 0], ns: [1, 1, 1], ls: [2, 2, 2], ms_combs: [-2, 0, 2, -2, 1, 1, -1, -1, 2, -1, 0, 1, 0, 0, 0], ctildes: [0.10331490408458899, -0.41610723518013187, -0.084356265943942854, 0.33975013482386685, -0.042178132971971427, 0.16987506741193342, 0.051657452042294473, -0.20805361759006588, -0.017219150680764822, 0.069351205863355289]}
    - {mu0: 0, rank: 3, ndensity: 2, num_ms_combs: 1, mus: [0, 0, 0], ns: [1, 1, 2], ls: [0, 0, 0], ms_combs: [0, 0, 0], ctildes: [0.064997730037642198, -0.65151733073514473]}
    - {mu0: 0, rank: 3, ndensity: 2, num_ms_combs: 2, mus: [0, 0, 0], ns: [1, 1, 2], ls: [0, 1, 1], ms_combs: [0, 0, 0, 0, 1, -1], ctildes: [0.049022918632603191, 0.44299550722772874, -0.098045837265206368, -0.88599101445545736]}
    - {mu0: 0, rank: 3, ndensity: 2, num_ms_combs: 3, mus: [0, 0, 0], ns: [1, 1, 2], ls: [0, 2, 2], ms_combs: [0, 0, 0, 0, 1, -1, 0, 2, -2], ctildes: [0.02426776060324573, -0.16510032630972321, -0.048535521206491468, 0.33020065261944648, 0.048535521206491482, -0.33020065261944653]}
    - {mu0: 0, rank: 3, ndensity: 2, num_ms_combs: 2, mus: [0, 0, 0], ns: [1, 1, 2], ls: [1, 1, 0], ms_combs: [0, 0, 0, 1, -1, 0], ctildes: [0.08725661474387543, -0.1267535667766605, -0.17451322948775083, 0.253507133553321]}
    - {mu0: 0, rank: 3, ndensity: 2, num_ms_combs: 4, mus: [0, 0, 0], ns: [1, 1, 2], ls: [1, 1, 2], ms_combs: [-1, 1, 0, 0, 0, 0, 0, 1, -1, 1, 1, -2], ctildes: [-0.0095101321702776211, -0.026276822898627209, -0.0095101321702776194, -0.026276822898627206, 0.032944064211232228, 0.091025584643823265, -0.023294971203607365, -0.064364808163117501]}
    - {mu0: 0, rank: 3, ndensity: 2, num_ms_combs: 5, mus: [0, 0, 0], ns: [1, 1, 2], ls: [1, 2, 1], ms_combs: [0, 0, 0, 0, 1, -1, 1, -2, 1, 1, -1, 0, 1, 0, -1], ctildes: [-0.0046578186510532775, 0.082901523167010743, 0.0080675785560662093, -0.14358965015011096, -0.011409279009499182, 0.20306643065869484, 0.0080675785560662093, -0.14358965015011096, -0.0046578186510532766, 0.082901523167010743]}
    - {mu0: 0, rank: 3, ndensity: 2, num_ms_combs: 3, mus: [0, 0, 0], ns: [1, 1, 2], ls: [2, 2, 0], ms_combs: [0, 0, 0, 1, -1, 0, 2, -2, 0], ctildes: [-0.010236810703622362, 0.059901378574168634, 0.020473621407244728, -0.11980275714833728, -0.020473621407244732, 0.11980275714833731]}
    - {mu0: 0, rank: 3, ndensity: 2, num_ms_combs: 8, mus: [0, 0, 0], ns: [1, 1, 2], ls: [2, 2, 2], ms_combs: [-2, 1, 1, -2, 2, 0, -1, 1, 0, -1, 2, -1, 0, 0, 0, 0, 1, -1, 0, 2, -2, 1, 1, -2], ctildes: [0.045013900966272315, -0.60851630505815291, -0.036753696233180602, 0.49685148251875483, -0.018376848116590301, 0.24842574125937741, 0.045013900966272315, -0.60851630505815291, 0.018376848116590301, -0.24842574125937741, -0.036753696233180602, 0.49685148251875483, -0.073507392466361246, 0.99370296503751021, 0.045013900966272315, -0.60851630505815291]}
    - {mu0: 0, rank: 3, ndensity: 2, num_ms_combs: 1, mus: [0, 0, 0], ns: [1, 1, 3], ls: [0, 0, 0], ms_combs: [0, 0, 0], ctildes: [0.005923888028259364, -0.14563222126887487]}
    - {mu0: 0, rank: 3, ndensity: 2, num_ms_combs: 2, mus: [0, 0, 0], ns: [1, 1, 3], ls: [0, 1, 1], ms_combs: [0, 0, 0, 0, 1, -1], ctildes: [-0.11950422998334456, 0.48670711223011709, 0.2390084599666891, -0.97341422446023396]}
    - {mu0: 0, rank: 3, ndensity: 2, num_ms_combs: 3, mus: [0, 0, 0], ns: [1, 1, 3], ls: [0, 2, 2], ms_combs: [0, 0, 0, 0, 1, -1, 0, 2, -2], ctildes: [0.033523584449757893, -0.14437190274236367, -0.067047168899515799, 0.28874380548472739, 0.067047168899515813, -0.28874380548472744]}
    - {mu0: 0, rank: 3, ndensity: 2, num_ms_combs: 2, mus: [0, 0, 0], ns: [1, 1, 3], ls: [1, 1, 0], ms_combs: [0, 0, 0, 1, -1, 0], ctildes: [0.037429213957583023, -0.10345967160897868, -0.074858427915166031, 0.20691934321795732]}
    - {mu0: 0, rank: 3, ndensity: 2, num_ms_combs: 4, mus: [0, 0, 0], ns: [1, 1, 3], ls: [1, 1, 2], ms_combs: [-1, 1, 0, 0, 0, 0, 0, 1, -1, 1, 1, -2], ctildes: [-0.025171394307604827, 0.10615123011450704, -0.025171394307604823, 0.10615123011450703, 0.087196267676243167, -0.36771864768852336, -0.061657072168028917, 0.2600163493493019]}
    - {mu0: 0, rank: 3, ndensity: 2, num_ms_combs: 5, mus: [0, 0, 0], ns: [1, 1, 3], ls: [1, 2, 1], ms_combs: [0, 0, 0, 0, 1, -1, 1, -2, 1, 1, -1, 0, 1, 0, -1], ctildes: [-0.059889869347402661, 0.27796982889202426, 0.10373229656836333, -0.48145786661221329, -0.14669962066308748, 0.68088424467420849, 0.10373229656836333, -0.48145786661221329, -0.059889869347402647, 0.27796982889202421]}
    - {mu0: 0, rank: 3, ndensity: 2, num_ms_combs: 3, mus: [0, 0, 0], ns: [1, 1, 3], ls: [2, 2, 0], ms_combs: [0, 0, 0, 1, -1, 0, 2, -2, 0], ctildes: [-0.0036091107003294828, 0.052230471559332727, 0.0072182214006589673, -0.10446094311866547, -0.007218221400658969, 0.10446094311866549]}
    - {mu0: 0, rank: 3, ndensity: 2, num_ms_combs: 8, mus: [0, 0, 0], ns: [1, 1, 3], ls: [2, 2, 2], ms_combs: [-2, 1, 1, -2, 2, 0, -1, 1, 0, -1, 2, -1, 0, 0, 0, 0, 1, -1, 0, 2, -2, 1, 1, -2], ctildes: [-0.020058371327673435, 0.16810109716446581, 0.01637759160802409, -0.13725397108498577, 0.0081887958040120449, -0.068626985542492885, -0.020058371327673435, 0.16810109716446581, -0.0081887958040120449, 0.068626985542492885, 0.01637759160802409, -0.13725397108498577, 0.0327551832160482, -0.27450794216997171, -0.020058371327673435, 0.16810109716446581]}
    - {mu0: 0, rank: 3, ndensity: 2, num_ms_combs: 1, mus: [0, 0, 0], ns: [1, 2, 2], ls: [0, 0, 0], ms_combs: [0, 0, 0], ctildes: [-0.0098698725453850982, -0.13687405190445745]}
    - {mu0: 0, rank: 3, ndensity: 2, num_ms_combs: 2, mus: [0, 0, 0], ns: [1, 2, 2], ls: [0, 1, 1], ms_combs: [0, 0, 0, 0, 1, -1], ctildes: [0.034464860402971455, -0.17980647588171292, -0.068929720805942896, 0.35961295176342578]}
    - {mu0: 0, rank: 3, ndensity: 2, num_ms_combs: 3, mus: [0, 0, 0], ns: [1, 2, 2], ls: [0, 2, 2], ms_combs: [0, 0, 0, 0, 1, -1, 0, 2, -2], ctildes: [0.024572913611973252, -0.24722009361000988, -0.04914582722394651, 0.49444018722001981, 0.049145827223946524, -0.49444018722001992]}
    - {mu0: 0, rank: 3, ndensity: 2, num_ms_combs: 2, mus: [0, 0, 0], ns: [1, 2, 2], ls: [1, 0, 1], ms_combs: [0, 0, 0, 1, 0, -1], ctildes: [-0.040711810730662136, 0.055938152442498175, 0.081423621461324258, -0.11187630488499634]}
    - {mu0: 0, rank: 3, ndensity: 2, num_ms_combs: 5, mus: [0, 0, 0], ns: [1, 2, 2], ls: [1, 1, 2], ms_combs: [0, 0, 0, 0, 1, -1, 1, -1, 0, 1, 0, -1, 1, 1, -2], ctildes: [0.044473375179284742, -0.11463360827948536, -0.077030145394593824, 0.19855123379501702, 0.044473375179284749, -0.11463360827948539, -0.077030145394593824, 0.19855123379501702, 0.10893707632860601, -0.28079384765882431]}
    - {mu0: 0, rank: 3, ndensity: 2, num_ms_combs: 3, mus: [0, 0, 0], ns: [1, 2, 2], ls: [2, 0, 2], ms_combs: [0, 0, 0, 1, 0, -1, 2, 0, -2], ctildes: [-0.0065239516778949581, -0.0022741246225686605, 0.013047903355789918, 0.0045482492451373218, -0.013047903355789921, -0.0045482492451373226]}
    - {mu0: 0, rank: 3, ndensity: 2, num_ms_combs: 4, mus: [0, 0, 0], ns: [1, 2, 2], ls: [2, 1, 1], ms_combs: [0, -1, 1, 0, 0, 0, 1, -1, 0, 2, -1, -1], ctildes: [0.0058913714845387792, 0.34133840174173324, 0.00589137148453878, 0.3413384017417333, -0.020408309474967301, -1.1824309087820781, 0.014430854022303046, 0.83610491388437946]}
    - {mu0: 0, rank: 3, ndensity: 2, num_ms_combs: 7, mus: [0, 0, 0], ns: [1, 2, 2], ls: [2, 2, 2], ms_combs: [0, -2, 2, 0, -1, 1, 0, 0, 0, 1, -2, 1, 1, -1, 0, 2, -2, 0, 2, -1, -1], ctildes: [-0.024063909474940425, 0.23908297254810357, -0.012031954737470206, 0.11954148627405171, 0.012031954737470206, -0.11954148627405171, 0.058944299430129486, -0.58563128893069161, -0.024063909474940411, 0.23908297254810343, -0.048127818949880836, 0.47816594509620697, 0.029472149715064743, -0.2928156444653458]}
    - {mu0: 0, rank: 3, ndensity: 2, num_ms_combs: 1, mus: [0, 0, 0], ns: [1, 2, 3], ls: [0, 0, 0], ms_combs: [0, 0, 0], ctildes: [-0.045485923476681067, 0.44711612923114347]}
    - {mu0: 0, rank: 3, ndensity: 2, num_ms_combs: 2, mus: [0, 0, 0], ns: [1, 2, 3], ls: [0, 1, 1], ms_combs: [0, 0, 0, 0, 1, -1], ctildes: [-0.07426250107247287, -0.10194372266893599, 0.14852500214494571, 0.20388744533787195]}
    - {mu0: 0, rank: 3, ndensity: 2, num_ms_combs: 3, mus: [0, 0, 0], ns: [1, 2, 3], ls: [0, 2, 2], ms_combs: [0, 0, 0, 0, 1, -1, 0, 2, -2], ctildes: [-0.038650632704536808, 0.29129323961217257, 0.07730126540907363, -0.58258647922434526, -0.077301265409073644, 0.58258647922434537]}
    - {mu0: 0, rank: 3, ndensity: 2, num_ms_combs: 2, mus: [0, 0, 0], ns: [1, 2, 3], ls: [1, 0, 1], ms_combs: [0, 0, 0, 1, 0, -1], ctildes: [0.086911783163642953, 0.21361090223560153, -0.17382356632728588, -0.42722180447120295]}
    - {mu0: 0, rank: 3, ndensity: 2, num_ms_combs: 2, mus: [0, 0, 0], ns: [1, 2, 3], ls: [1, 1, 0], ms_combs: [0, 0, 0, 1, -1, 0], ctildes: [0.028760707979727743, 0.20392366967327824, -0.057521415959455473, -0.40784733934655637]}
    - {mu0: 0, rank: 3, ndensity: 2, num_ms_combs: 5, mus: [0, 0, 0], ns: [1, 2, 3], ls: [1, 1, 2], ms_combs: [0, 0, 0, 0, 1, -1, 1, -1, 0, 1, 0, -1, 1, 1, -2], ctildes: [0.02074330271781516, -0.091272147339260618, -0.035928454224037447, 0.15808799650751193, 0.020743302717815163, -0.091272147339260631, -0.035928454224037447, 0.15808799650751193, 0.050810507238734676, -0.22357018870931392]}
    - {mu0: 0, rank: 3, ndensity: 2, num_ms_combs: 5, mus: [0, 0, 0], ns: [1, 2, 3], ls: [1, 2, 1], ms_combs: [0, 0, 0, 0, 1, -1, 1, -2, 1, 1, -1, 0, 1, 0, -1], ctildes: [-0.0014363169345120836, 0.01262958921742687, 0.0024877739063465087, -0.021875090203307399, -0.003518243598473126, 0.030936049243652144, 0.0024877739063465087, -0.021875090203307399, -0.0014363169345120834, 0.012629589217426868]}
    - {mu0: 0, rank: 3, ndensity: 2, num_ms_combs: 3, mus: [0, 0, 0], ns: [1, 2, 3], ls: [2, 0, 2], ms_combs: [0, 0, 0, 1, 0, -1, 2, 0, -2], ctildes: [-0.043004407367235598, 0.38840655478694391, 0.086008814734471195, -0.77681310957388794, -0.086008814734471223, 0.77681310957388816]}
    - {mu0: 0, rank: 3, ndensity: 2, num_ms_combs: 5, mus: [0, 0, 0], ns: [1, 2, 3], ls: [2, 1, 1], ms_combs: [0, 0, 0, 0, 1, -1, 1, -1, 0, 1, 0, -1, 2, -1, -1], ctildes: [-0.10156654389991335, 0.1126851471271991, -0.10156654389991333, 0.11268514712719908, 0.17591841438382474, -0.19517640008268297, 0.17591841438382474, -0.19517640008268297, -0.24878620749277511, 0.27602111205208746]}
    - {mu0: 0, rank: 3, ndensity: 2, num_ms_combs: 3, mus: [0, 0, 0], ns: [1, 2, 3], ls: [2, 2, 0], ms_combs: [0, 0, 0, 1, -1, 0, 2, -2, 0], ctildes: [0.039239301568995209, -0.39469882763292025, -0.078478603137990433, 0.7893976552658406, 0.07847860313799046, -0.78939765526584083]}
    - {mu0: 0, rank: 3, ndensity: 2, num_ms_combs: 10, mus: [0, 0, 0], ns: [1, 2, 3], ls: [2, 2, 2], ms_combs: [0, 0, 0, 0, 1, -1, 0, 2, -2, 1, -2, 1, 1, -1, 0, 1, 0, -1, 1, 1, -2, 2, -2, 0, 2, -1, -1, 2, 0, -2], ctildes: [0.0059764753634418168, -0.038987675547902584, -0.0059764753634418168, 0.038987675547902584, -0.01195295072688364, 0.077975351095805209, 0.014639315100747102, -0.095499911349545927, -0.0059764753634418168, 0.038987675547902584, -0.0059764753634418168, 0.038987675547902584, 0.014639315100747102, -0.095499911349545927, -0.011952950726883634, 0.077975351095805168, 0.014639315100747102, -0.095499911349545927, -0.01195295072688364, 0.077975351095805209]}
    - {mu0: 0, rank: 3, ndensity: 2, num_ms_combs: 1, mus: [0, 0, 0], ns: [1, 3, 3], ls: [0, 0, 0], ms_combs: [0, 0, 0], ctildes: [-0.011425065782783073, 0.24681649235765835]}
    - {mu0: 0, rank: 3, ndensity: 2, num_ms_combs: 2, mus: [0, 0, 0], ns: [1, 3, 3], ls: [0, 1, 1], ms_combs: [0, 0, 0, 0, 1, -1], ctildes: [0.046909328001541989, 0.2200859517522977, -0.093818656003083964, -0.44017190350459534]}
    - {mu0: 0, rank: 3, ndensity: 2, num_ms_combs: 3, mus: [0, 0, 0], ns: [1, 3, 3], ls: [0, 2, 2], ms_combs: [0, 0, 0, 0, 1, -1, 0, 2, -2], ctildes: [0.026070008649491948, -0.19639551659185311, -0.052140017298983904, 0.39279103318370628, 0.052140017298983918, -0.3927910331837064]}
    - {mu0: 0, rank: 3, ndensity: 2, num_ms_combs: 2, mus: [0, 0, 0], ns: [1, 3, 3], ls: [1, 0, 1], ms_combs: [0, 0, 0, 1, 0, -1], ctildes: [-0.026585746108670857, 0.11227294607059202, 0.053171492217341701, -0.22454589214118401]}
    - {mu0: 0, rank: 3, ndensity: 2, num_ms_combs: 5, mus: [0, 0, 0], ns: [1, 3, 3], ls: [1, 1, 2], ms_combs: [0, 0, 0, 0, 1, -1, 1, -1, 0, 1, 0, -1, 1, 1, -2], ctildes: [-0.0478713495502886, 0.084568937543793243, 0.082915609647989399, -0.14647769656796908, -0.047871349550288607, 0.084568937543793257, 0.082915609647989399, -0.14647769656796908, -0.11726037969662008, 0.20715074507159287]}
    - {mu0: 0, rank: 3, ndensity: 2, num_ms_combs: 3, mus: [0, 0, 0], ns: [1, 3, 3], ls: [2, 0, 2], ms_combs: [0, 0, 0, 1, 0, -1, 2, 0, -2], ctildes: [0.0052222785821996031, -0.11146049916843714, -0.010444557164399206, 0.22292099833687432, 0.01044455716439921, -0.22292099833687437]}
    - {mu0: 0, rank: 3, ndensity: 2, num_ms_combs: 4, mus: [0, 0, 0], ns: [1, 3, 3], ls: [2, 1, 1], ms_combs: [0, -1, 1, 0, 0, 0, 1, -1, 0, 2, -1, -1], ctildes: [0.043000476275588145, -0.13847038684731094, 0.043000476275588152, -0.13847038684731097, -0.14895801931795763, 0.47967549072651966, 0.10532922557184457, -0.33918179226170692]}
    - {mu0: 0, rank: 3, ndensity: 2, num_ms_combs: 7, mus: [0, 0, 0], ns: [1, 3, 3], ls: [2, 2, 2], ms_combs: [0, -2, 2, 0, -1, 1, 0, 0, 0, 1, -2, 1, 1, -1, 0, 2, -2, 0, 2, -1, -1], ctildes: [0.012448008968847981, -0.10243187896732106, 0.006224004484423987, -0.051215939483660496, -0.006224004484423987, 0.051215939483660496, -0.030491270287266128, 0.25090583686446083, 0.012448008968847974, -0.10243187896732099, 0.024896017937695955, -0.20486375793464204, -0.015245635143633064, 0.12545291843223041]}
    - {mu0: 0, rank: 3, ndensity: 2, num_ms_combs: 1, mus: [0, 0, 0], ns: [2, 2, 2], ls: [0, 0, 0], ms_combs: [0, 0, 0], ctildes: [0.04668641815705081, -0.15101572792715362]}
    - {mu0: 0, rank: 3, ndensity: 2, num_ms_combs: 2, mus: [0, 0, 0], ns: [2, 2, 2], ls: [0, 1, 1], ms_combs: [0, 0, 0, 0, 1, -1], ctildes: [0.0046216099913881413, 0.10603747664051362, -0.0092432199827762809, -0.21207495328102721]}
    - {mu0: 0, rank: 3, ndensity: 2, num_ms_combs: 3, mus: [0, 0, 0], ns: [2, 2, 2], ls: [0, 2, 2], ms_combs: [0, 0, 0, 0, 1, -1, 0, 2, -2], ctildes: [0.031156203729021992, -0.32714355260917655, -0.062312407458043992, 0.6542871052183532, 0.062312407458044013, -0.65428710521835332]}
    - {mu0: 0, rank: 3, ndensity: 2, num_ms_combs: 4, mus: [0, 0, 0], ns: [2, 2, 2], ls: [1, 1, 2], ms_combs: [-1, 1, 0, 0, 0, 0, 0, 1, -1, 1, 1, -2], ctildes: [-0.02321821688032618, 0.010103071970703623, -0.023218216880326176, 0.010103071970703622, 0.080430262595756613, -0.0349980679315674, -0.056872784094074237, 0.02474737116283876]}
    - {mu0: 0, rank: 3, ndensity: 2, num_ms_combs: 5, mus: [0, 0, 0], ns: [2, 2, 2], ls: [2, 2, 2], ms_combs: [-2, 0, 2, -2, 1, 1, -1, -1, 2, -1, 0, 1, 0, 0, 0], ctildes: [-0.030648782841432375, 0.22705510768334439, 0.025024626399625886, -0.18538971910562732, 0.012512313199812943, -0.09269485955281366, -0.015324391420716182, 0.11352755384167215, 0.0051081304735720607, -0.037842517947224048]}
    - {mu0: 0, rank: 3, ndensity: 2, num_ms_combs: 1, mus: [0, 0, 0], ns: [2, 2, 3], ls: [0, 0, 0], ms_combs: [0, 0, 0], ctildes: [0.011512845102032614, -0.15622480797334376]}
    - {mu0: 0, rank: 3, ndensity: 2, num_ms_combs: 2, mus: [0, 0, 0], ns: [2, 2, 3], ls: [0, 1, 1], ms_combs: [0, 0, 0, 0, 1, -1], ctildes: [-0.080168109410192229, 0.11571382798210333, 0.1603362188203844, -0.23142765596420664]}
    - {mu0: 0, rank: 3, ndensity: 2, num_ms_combs: 3, mus: [0, 0, 0], ns: [2, 2, 3], ls: [0, 2, 2], ms_combs: [0, 0, 0, 0, 1, -1, 0, 2, -2], ctildes: [-0.0070989198529605429, 0.045671984460676114, 0.014197839705921088, -0.091343968921352242, -0.014197839705921091, 0.091343968921352256]}
    - {mu0: 0, rank: 3, ndensity: 2, num_ms_combs: 2, mus: [0, 0, 0], ns: [2, 2, 3], ls: [1, 1, 0], ms_combs: [0, 0, 0, 1, -1, 0], ctildes: [-0.022319569074004234, -0.20380069212857438, 0.044639138148008461, 0.4076013842571487]}
    - {mu0: 0, rank: 3, ndensity: 2, num_ms_combs: 4, mus: [0, 0, 0], ns: [2, 2, 3], ls: [1, 1, 2], ms_combs: [-1, 1, 0, 0, 0, 0, 0, 1, -1, 1, 1, -2], ctildes: [-0.0091561259280586484, 0.083950413054925691, -0.0091561259280586466, 0.083950413054925677, 0.031717750615792642, -0.29081276145504975, -0.022427836544410773, 0.20563567568045155]}
    - {mu0: 0, rank: 3, ndensity: 2, num_ms_combs: 5, mus: [0, 0, 0], ns: [2, 2, 3], ls: [1, 2, 1], ms_combs: [0, 0, 0, 0, 1, -1, 1, -2, 1, 1, -1, 0, 1, 0, -1], ctildes: [0.023282334433627035, -0.11217523253140997, -0.040326186157852391, 0.19429320209525525, 0.057029839383217013, -0.27477208148000659, -0.040326186157852391, 0.19429320209525525, 0.023282334433627032, -0.11217523253140996]}
    - {mu0: 0, rank: 3, ndensity: 2, num_ms_combs: 3, mus: [0, 0, 0], ns: [2, 2, 3], ls: [2, 2, 0], ms_combs: [0, 0, 0, 1, -1, 0, 2, -2, 0], ctildes: [-0.02286900236738975, 0.24104045692266937, 0.045738004734779507, -0.4820809138453388, -0.045738004734779514, 0.48208091384533897]}
    - {mu0: 0, rank: 3, ndensity: 2, num_ms_combs: 8, mus: [0, 0, 0], ns: [2, 2, 3], ls: [2, 2, 2], ms_combs: [-2, 1, 1, -2, 2, 0, -1, 1, 0, -1, 2, -1, 0, 0, 0, 0, 1, -1, 0, 2, -2, 1, 1, -2], ctildes: [-0.01714220662589877, 0.12002442391338411, 0.013996553099602953, -0.097999531753098099, 0.0069982765498014764, -0.048999765876549049, -0.01714220662589877, 0.12002442391338411, -0.0069982765498014764, 0.048999765876549049, 0.013996553099602953, -0.097999531753098099, 0.027993106199205923, -0.19599906350619631, -0.01714220662589877, 0.12002442391338411]}
    - {mu0: 0, rank: 3, ndensity: 2, num_ms_combs: 1, mus: [0, 0, 0], ns: [2, 3, 3], ls: [0, 0, 0], ms_combs: [0, 0, 0], ctildes: [-0.0039710556442266844, 0.09260852747219904]}
    - {mu0: 0, rank: 3, ndensity: 2, num_ms_combs: 2, mus: [0, 0, 0], ns: [2, 3, 3], ls: [0, 1, 1], ms_combs: [0, 0, 0, 0, 1, -1], ctildes: [0.045583309861187207, 0.12530382201160423, -0.091166619722374401, -0.2506076440232084]}
    - {mu0: 0, rank: 3, ndensity: 2, num_ms_combs: 3, mus: [0, 0, 0], ns: [2, 3, 3], ls: [0, 2, 2], ms_combs: [0, 0, 0, 0, 1, -1, 0, 2, -2], ctildes: [-0.013501848770976635, 0.11567587235069342, 0.027003697541953274, -0.23135174470138686, -0.027003697541953278, 0.23135174470138692]}
    - {mu0: 0, rank: 3, ndensity: 2, num_ms_combs: 2, mus: [0, 0, 0], ns: [2, 3, 3], ls: [1, 0, 1], ms_combs: [0, 0, 0, 1, 0, -1], ctildes: [0.06942834983488351, 0.14182254595359933, -0.13885669966976699, -0.28364509190719861]}
    - {mu0: 0, rank: 3, ndensity: 2, num_ms_combs: 5, mus: [0, 0, 0], ns: [2, 3, 3], ls: [1, 1, 2], ms_combs: [0, 0, 0, 0, 1, -1, 1, -1, 0, 1, 0, -1, 1, 1, -2], ctildes: [0.018514496311089101, -0.067984234763608389, -0.032068048287352886, 0.11775214872426008, 0.018514496311089101, -0.067984234763608403, -0.032068048287352886, 0.11775214872426008, 0.045351068806809759, -0.16652668572442239]}
    - {mu0: 0, rank: 3, ndensity: 2, num_ms_combs: 3, mus: [0, 0, 0], ns: [2, 3, 3], ls: [2, 0, 2], ms_combs: [0, 0, 0, 1, 0, -1, 2, 0, -2], ctildes: [0.046335215630350958, -0.3466655225106825, -0.09267043126070193, 0.69333104502136511, 0.092670431260701944, -0.69333104502136533]}
    - {mu0: 0, rank: 3, ndensity: 2, num_ms_combs: 4, mus: [0, 0, 0], ns: [2, 3, 3], ls: [2, 1, 1], ms_combs: [0, -1, 1, 0, 0, 0, 1, -1, 0, 2, -1, -1], ctildes: [0.00082197651319650675, 0.060797114180007647, 0.00082197651319650697, 0.060797114180007661, -0.0028474101669693198, -0.21060738142667904, 0.0020134230378835252, 0.14892190757474646]}
    - {mu0: 0, rank: 3, ndensity: 2, num_ms_combs: 7, mus: [0, 0, 0], ns: [2, 3, 3], ls: [2, 2, 2], ms_combs: [0, -2, 2, 0, -1, 1, 0, 0, 0, 1, -2, 1, 1, -1, 0, 2, -2, 0, 2, -1, -1], ctildes: [-0.010704380479106899, 0.092438389847183278, -0.0053521902395534471, 0.046219194923591611, 0.0053521902395534471, -0.046219194923591611, 0.026220270186420824, -0.22642688777006806, -0.010704380479106894, 0.092438389847183222, -0.021408760958213792, 0.1848767796943665, 0.013110135093210412, -0.11321344388503403]}
    - {mu0: 0, rank: 3, ndensity: 2, num_ms_combs: 1, mus: [0, 0, 0], ns: [3, 3, 3], ls: [0, 0, 0], ms_combs: [0, 0, 0], ctildes: [0.017171891272430198, -0.2078405165676829]}
    - {mu0: 0, rank: 3, ndensity: 2, num_ms_combs: 2, mus: [0, 0, 0], ns: [3, 3, 3], ls: [0, 1, 1], ms_combs: [0, 0, 0, 0, 1, -1], ctildes: [-0.052713011890169463, 0.14332485370725165, 0.10542602378033891, -0.28664970741450324]}
    - {mu0: 0, rank: 3, ndensity: 2, num_ms_combs: 3, mus: [0, 0, 0], ns: [3, 3, 3], ls: [0, 2, 2], ms_combs: [0, 0, 0, 0, 1, -1, 0, 2, -2], ctildes: [-0.0044235573468890347, 0.027417866420022044, 0.0088471146937780694, -0.054835732840044095, -0.0088471146937780729, 0.054835732840044109]}
    - {mu0: 0, rank: 3, ndensity: 2, num_ms_combs: 4, mus: [0, 0, 0], ns: [3, 3, 3], ls: [1, 1, 2], ms_combs: [-1, 1, 0, 0, 0, 0, 0, 1, -1, 1, 1, -2], ctildes: [-0.024047883857015617, 0.0123023772249424, -0.024047883857015614, 0.012302377224942398, 0.083304313309732952, -0.042616684814956902, -0.058905044843400943, 0.030134546824345795]}
    - {mu0: 0, rank: 3, ndensity: 2, num_ms_combs: 5, mus: [0, 0, 0], ns: [3, 3, 3], ls: [2, 2, 2], ms_combs: [-2, 0, 2, -2, 1, 1, -1, -1, 2, -1, 0, 1, 0, 0, 0], ctildes: [0.023664993593814975, -0.20629474614185062, -0.019322386357026464, 0.1684389548881742, -0.0096611931785132322, 0.084219477444087101, 0.011832496796907484, -0.10314737307092527, -0.0039441655989691611, 0.03438245769030842]}
    - {mu0: 0, rank: 3, ndensity: 2, num_ms_combs: 1, mus: [0, 0, 1], ns: [1, 1, 1], ls: [0, 0, 0], ms_combs: [0, 0, 0], ctildes: [0.10039673730979157, -0.24278220454289939]}
    - {mu0: 0, rank: 3, ndensity: 2, num_ms_combs: 2, mus: [0, 0, 1], ns: [1, 1, 1], ls: [0, 1, 1], ms_combs: [0, 0, 0, 0, 1, -1], ctildes: [0.12874836978881532, -0.71754173201477567, -0.25749673957763058, 1.4350834640295511]}
    - {mu0: 0, rank: 3, ndensity: 2, num_ms_combs: 3, mus: [0, 0, 1], ns: [1, 1, 1], ls: [0, 2, 2], ms_combs: [0, 0, 0, 0, 1, -1, 0, 2, -2], ctildes: [-0.043393627592737995, 0.37379477632183078, 0.086787255185475989, -0.74758955264366156, -0.086787255185476017, 0.74758955264366178]}
    - {mu0: 0, rank: 3, ndensity: 2, num_ms_combs: 2, mus: [0, 0, 1], ns: [1, 1, 1], ls: [1, 1, 0], ms_combs: [0, 0, 0, 1, -1, 0], ctildes: [0.0038044055814517308, -0.27251721933700124, -0.0076088111629034607, 0.54503443867400236]}
    - {mu0: 0, rank: 3, ndensity: 2, num_ms_combs: 4, mus: [0, 0, 1], ns: [1, 1, 1], ls: [1, 1, 2], ms_combs: [-1, 1, 0, 0, 0, 0, 0, 1, -1, 1, 1, -2], ctildes: [-1.2050955426943165e-05, -0.031555158435199127, -1.2050955426943161e-05, -0.03155515843519912, 4.174573415842691e-05, 0.10931027530130104, -2.9518691709034561e-05, -0.077294036918918355]}
    - {mu0: 0, rank: 3, ndensity: 2, num_ms_combs: 5, mus: [0, 0, 1], ns: [1, 1, 1], ls: [1, 2, 1], ms_combs: [0, 0, 0, 0, 1, -1, 1, -2, 1, 1, -1, 0, 1, 0, -1], ctildes: [-0.016015824265676517, 0.0045762206452868602, 0.027740221353246237, -0.0079262466642824759, -0.039230597260992553, 0.011209405531342781, 0.027740221353246237, -0.0079262466642824759, -0.016015824265676517, 0.0045762206452868602]}
    - {mu0: 0, rank: 3, ndensity: 2, num_ms_combs: 3, mus: [0, 0, 1], ns: [1, 1, 1], ls: [2, 2, 0], ms_combs: [0, 0, 0, 1, -1, 0, 2, -2, 0], ctildes: [-0.018555904615872258, 0.21144999793298963, 0.037111809231744522, -0.42289999586597932, -0.037111809231744529, 0.42289999586597943]}
    - {mu0: 0, rank: 3, ndensity: 2, num_ms_combs: 8, mus: [0, 0, 1], ns: [1, 1, 1], ls: [2, 2, 2], ms_combs: [-2, 1, 1, -2, 2, 0, -1, 1, 0, -1, 2, -1, 0, 0, 0, 0, 1, -1, 0, 2, -2, 1, 1, -2], ctildes: [-0.047679517466130868, 0.41016122553964368, 0.038930162991379635, -0.33489523828224488, 0.019465081495689818, -0.16744761914112244, -0.047679517466130868, 0.41016122553964368, -0.019465081495689818, 0.16744761914112244, 0.038930162991379635, -0.33489523828224488, 0.077860325982759312, -0.6697904765644902, -0.047679517466130868, 0.41016122553964368]}
    - {mu0: 0, rank: 3, ndensity: 2, num_ms_combs: 1, mus: [0, 0, 1], ns: [1, 1, 2], ls: [0, 0, 0], ms_combs: [0, 0, 0], ctildes: [-0.029040079602267486, 0.46596271041883652]}
    - {mu0: 0, rank: 3, ndensity: 2, num_ms_combs: 2, mus: [0, 0, 1], ns: [1, 1, 2], ls: [0, 1, 1], ms_combs: [0, 0, 0, 0, 1, -1], ctildes: [0.069605356010034078, -0.22851413371955284, -0.13921071202006813, 0.45702826743910557]}
    - {mu0: 0, rank: 3, ndensity: 2, num_ms_combs: 3, mus: [0, 0, 1], ns: [1, 1, 2], ls: [0, 2, 2], ms_combs: [0, 0, 0, 0, 1, -1, 0, 2, -2], ctildes: [0.0044852320681447117, -0.15878429535189623, -0.0089704641362894234, 0.31756859070379251, 0.0089704641362894268, -0.31756859070379256]}
    - {mu0: 0, rank: 3, ndensity: 2, num_ms_combs: 2, mus: [0, 0, 1], ns: [1, 1, 2], ls: [1, 1, 0], ms_combs: [0, 0, 0, 1, -1, 0], ctildes: [-0.01266045130643513, 0.015581212868087113, 0.025320902612870254, -0.031162425736174219]}
    - {mu0: 0, rank: 3, ndensity: 2, num_ms_combs: 4, mus: [0, 0, 1], ns: [1, 1, 2], ls: [1, 1, 2], ms_combs: [-1, 1, 0, 0, 0, 0, 0, 1, -1, 1, 1, -2], ctildes: [0.017332868369154555, -0.25014629323519166, 0.017332868369154552, -0.25014629323519166, -0.060042817312558401, 0.86653217841675001, 0.042456683283255088, -0.61273077947483523]}
    - {mu0: 0, rank: 3, ndensity: 2, num_ms_combs: 5, mus: [0, 0, 1], ns: [1, 1, 2], ls: [1, 2, 1], ms_combs: [0, 0, 0, 0, 1, -1, 1, -2, 1, 1, -1, 0, 1, 0, -1], ctildes: [0.029186914856481446, -0.30947667086872443, -0.050553219447612756, 0.53602931770190188, 0.07149304856443725, -0.758059930923626, -0.050553219447612756, 0.53602931770190188, 0.029186914856481443, -0.30947667086872438]}
    - {mu0: 0, rank: 3, ndensity: 2, num_ms_combs: 3, mus: [0, 0, 1], ns: [1, 1, 2], ls: [2, 2, 0], ms_combs: [0, 0, 0, 1, -1, 0, 2, -2, 0], ctildes: [-0.0136249268301659, 0.12658378738356349, 0.027249853660331804, -0.25316757476712703, -0.027249853660331811, 0.25316757476712709]}
    - {mu0: 0, rank: 3, ndensity: 2, num_ms_combs: 8, mus: [0, 0, 1], ns: [1, 1, 2], ls: [2, 2, 2], ms_combs: [-2, 1, 1, -2, 2, 0, -1, 1, 0, -1, 2, -1, 0, 0, 0, 0, 1, -1, 0, 2, -2, 1, 1, -2], ctildes: [0.020632005998499025, -0.27301085009355075, -0.016845962355454783, 0.22291242565755606, -0.0084229811777273914, 0.11145621282877803, 0.020632005998499025, -0.27301085009355075, 0.0084229811777273914, -0.11145621282877803, -0.016845962355454783, 0.22291242565755606, -0.033691924710909586, 0.4458248513151124, 0.020632005998499025, -0.27301085009355075]}
    - {mu0: 0, rank: 3, ndensity: 2, num_ms_combs: 1, mus: [0, 0, 1], ns: [1, 2, 1], ls: [0, 0, 0], ms_combs: [0, 0, 0], ctildes: [-0.059952910891618999, 0.77540867022218718]}
    - {mu0: 0, rank: 3, ndensity: 2, num_ms_combs: 2, mus: [0, 0, 1], ns: [1, 2, 1], ls: [0, 1, 1], ms_combs: [0, 0, 0, 0, 1, -1], ctildes: [0.0018921553494642505, -0.46750170621373599, -0.0037843106989285001, 0.93500341242747187]}
    - {mu0: 0, rank: 3, ndensity: 2, num_ms_combs: 3, mus: [0, 0, 1], ns: [1, 2, 1], ls: [0, 2, 2], ms_combs: [0, 0, 0, 0, 1, -1, 0, 2, -2], ctildes: [-0.0024996160350783127, -0.024112804584943845, 0.0049992320701566263, 0.048225609169887697, -0.0049992320701566272, -0.048225609169887711]}
    - {mu0: 0, rank: 3, ndensity: 2, num_ms_combs: 2, mus: [0, 0, 1], ns: [1, 2, 1], ls: [1, 0, 1], ms_combs: [0, 0, 0, 1, 0, -1], ctildes: [-0.048988004943029545, 0.28285503095940573, 0.097976009886059076, -0.56571006191881135]}
    - {mu0: 0, rank: 3, ndensity: 2, num_ms_combs: 2, mus: [0, 0, 1], ns: [1, 2, 1], ls: [1, 1, 0], ms_combs: [0, 0, 0, 1, -1, 0], ctildes: [0.0049487502297119379, 0.0013333310992783576, -0.009897500459423874, -0.0026666621985567147]}
    - {mu0: 0, rank: 3, ndensity: 2, num_ms_combs: 5, mus: [0, 0, 1], ns: [1, 2, 1], ls: [1, 1, 2], ms_combs: [0, 0, 0, 0, 1, -1, 1, -1, 0, 1, 0, -1, 1, 1, -2], ctildes: [0.012406243264345487, -0.14901861013610584, -0.021488243664905551, 0.25810780402903388, 0.012406243264345489, -0.14901861013610587, -0.021488243664905551, 0.25810780402903388, 0.030388965622487173, -0.36501955701219679]}
    - {mu0: 0, rank: 3, ndensity: 2, num_ms_combs: 5, mus: [0, 0, 1], ns: [1, 2, 1], ls: [1, 2, 1], ms_combs: [0, 0, 0, 0, 1, -1, 1, -2, 1, 1, -1, 0, 1, 0, -1], ctildes: [0.0040028446774100787, -0.28034025551433905, -0.0069331303560809087, 0.48556356595767636, 0.0098049269792702259, -0.6866905803715887, -0.0069331303560809087, 0.48556356595767636, 0.0040028446774100779, -0.280340255514339]}
    - {mu0: 0, rank: 3, ndensity: 2, num_ms_combs: 3, mus: [0, 0, 1], ns: [1, 2, 1], ls: [2, 0, 2], ms_combs: [0, 0, 0, 1, 0, -1, 2, 0, -2], ctildes: [-0.01571576415336725, 0.068070148296881142, 0.031431528306734499, -0.13614029659376228, -0.031431528306734513, 0.13614029659376234]}
    - {mu0: 0, rank: 3, ndensity: 2, num_ms_combs: 5, mus: [0, 0, 1], ns: [1, 2, 1], ls: [2, 1, 1], ms_combs: [0, 0, 0, 0, 1, -1, 1, -1, 0, 1, 0, -1, 2, -1, -1], ctildes: [0.010531424014155653, -0.10524918770858849, 0.010531424014155652, -0.10524918770858846, -0.018240961468568569, 0.18229694056662904, -0.018240961468568569, 0.18229694056662904, 0.025796615099574715, -0.25780680572844883]}
    - {mu0: 0, rank: 3, ndensity: 2, num_ms_combs: 3, mus: [0, 0, 1], ns: [1, 2, 1], ls: [2, 2, 0], ms_combs: [0, 0, 0, 1, -1, 0, 2, -2, 0], ctildes: [-0.018908372287497033, 0.075136741714082148, 0.037816744574994073, -0.15027348342816432, -0.037816744574994079, 0.15027348342816435]}
    - {mu0: 0, rank: 3, ndensity: 2, num_ms_combs: 10, mus: [0, 0, 1], ns: [1, 2, 1], ls: [2, 2, 2], ms_combs: [0, 0, 0, 0, 1, -1, 0, 2, -2, 1, -2, 1, 1, -1, 0, 1, 0, -1, 1, 1, -2, 2, -2, 0, 2, -1, -1, 2, 0, -2], ctildes: [-0.0035929928959434771, -0.022981872181382354, 0.0035929928959434771, 0.022981872181382354, 0.0071859857918869586, 0.045963744362764736, -0.0088009992445063773, -0.056293860178250152, 0.0035929928959434771, 0.022981872181382354, 0.0035929928959434771, 0.022981872181382354, -0.0088009992445063773, -0.056293860178250152, 0.0071859857918869542, 0.045963744362764708, -0.0088009992445063773, -0.056293860178250152, 0.0071859857918869586, 0.045963744362764736]}
    - {mu0: 0, rank: 3, ndensity: 2, num_ms_combs: 1, mus: [0, 0, 1], ns: [1, 2, 2], ls: [0, 0, 0], ms_combs: [0, 0, 0], ctildes: [-0.023266175838160971, -0.37647936098147261]}
    - {mu0: 0, rank: 3, ndensity: 2, num_ms_combs: 2, mus: [0, 0, 1], ns: [1, 2, 2], ls: [0, 1, 1], ms_combs: [0, 0, 0, 0, 1, -1], ctildes: [-0.011399484840314288, 0.10192022460823488, 0.022798969680628573, -0.20384044921646971]}
    - {mu0: 0, rank: 3, ndensity: 2, num_ms_combs: 3, mus: [0, 0, 1], ns: [1, 2, 2], ls: [0, 2, 2], ms_combs: [0, 0, 0, 0, 1, -1, 0, 2, -2], ctildes: [0.050265606236318497, -0.34567659853197519, -0.10053121247263701, 0.69135319706395049, 0.10053121247263702, -0.6913531970639506]}
    - {mu0: 0, rank: 3, ndensity: 2, num_ms_combs: 2, mus: [0, 0, 1], ns: [1, 2, 2], ls: [1, 0, 1], ms_combs: [0, 0, 0, 1, 0, -1], ctildes: [-0.078522598443679384, 0.1447048492020778, 0.15704519688735874, -0.28940969840415554]}
    - {mu0: 0, rank: 3, ndensity: 2, num_ms_combs: 2, mus: [0, 0, 1], ns: [1, 2, 2], ls: [1, 1, 0], ms_combs: [0, 0, 0, 1, -1, 0], ctildes: [-0.016046540028075092, 0.15754344689821026, 0.032093080056150178, -0.31508689379642046]}
    - {mu0: 0, rank: 3, ndensity: 2, num_ms_combs: 5, mus: [0, 0, 1], ns: [1, 2, 2], ls: [1, 1, 2], ms_combs: [0, 0, 0, 0, 1, -1, 1, -1, 0, 1, 0, -1, 1, 1, -2], ctildes: [-0.0089729589182579814, 0.17835026116957639, 0.015541620740651102, -0.30891171388888505, -0.0089729589182579832, 0.17835026116957642, 0.015541620740651102, -0.30891171388888505, -0.021979170832687779, 0.43686713535757848]}
    - {mu0: 0, rank: 3, ndensity: 2, num_ms_combs: 5, mus: [0, 0, 1], ns: [1, 2, 2], ls: [1, 2, 1], ms_combs: [0, 0, 0, 0, 1, -1, 1, -2, 1, 1, -1, 0, 1, 0, -1], ctildes: [0.0083331757986121538, -0.067568281277170891, -0.014433483871599605, 0.1170316961521649, 0.020412028643509487, -0.16550781192591874, -0.014433483871599605, 0.1170316961521649, 0.0083331757986121521, -0.067568281277170877]}
    - {mu0: 0, rank: 3, ndensity: 2, num_ms_combs: 3, mus: [0, 0, 1], ns: [1, 2, 2], ls: [2, 0, 2], ms_combs: [0, 0, 0, 1, 0, -1, 2, 0, -2], ctildes: [-0.0091002619169853957, 0.043622158899642542, 0.018200523833970795, -0.087244317799285084, -0.018200523833970798, 0.087244317799285112]}
    - {mu0: 0, rank: 3, ndensity: 2, num_ms_combs: 5, mus: [0, 0, 1], ns: [1, 2, 2], ls: [2, 1, 1], ms_combs: [0, 0, 0, 0, 1, -1, 1, -1, 0, 1, 0, -1, 2, -1, -1], ctildes: [-0.045965450702903463, 0.53663594482144883, -0.045965450702903456, 0.53663594482144883, 0.079614496010231364, -0.92948072159847805, 0.079614496010231364, -0.92948072159847805, -0.11259190001916786, 1.3144842424488985]}
    - {mu0: 0, rank: 3, ndensity: 2, num_ms_combs: 3, mus: [0, 0, 1], ns: [1, 2, 2], ls: [2, 2, 0], ms_combs: [0, 0, 0, 1, -1, 0, 2, -2, 0], ctildes: [0.00085226208444071333, 0.0063762401870703063, -0.0017045241688814269, -0.012752480374140614, 0.0017045241688814271, 0.012752480374140618]}
    - {mu0: 0, rank: 3, ndensity: 2, num_ms_combs: 10, mus: [0, 0, 1], ns: [1, 2, 2], ls: [2, 2, 2], ms_combs: [0, 0, 0, 0, 1, -1, 0, 2, -2, 1, -2, 1, 1, -1, 0, 1, 0, -1, 1, 1, -2, 2, -2, 0, 2, -1, -1, 2, 0, -2], ctildes: [0.013187869097743585, -0.081622684092439404, -0.013187869097743585, 0.081622684092439404, -0.026375738195487185, 0.16324536818487892, 0.032303550084090166, -0.19993392746286207, -0.013187869097743585, 0.081622684092439404, -0.013187869097743585, 0.081622684092439404, 0.032303550084090166, -0.19993392746286207, -0.026375738195487171, 0.16324536818487881, 0.032303550084090166, -0.19993392746286207, -0.026375738195487185, 0.16324536818487892]}
    - {mu0: 0, rank: 3, ndensity: 2, num_ms_combs: 1, mus: [0, 0, 1], ns: [2, 2, 1], ls: [0, 0, 0], ms_combs: [0, 0, 0], ctildes: [0.044115027809660229, -0.58801137251032576]}
    - {mu0: 0, rank: 3, ndensity: 2, num_ms_combs: 2, mus: [0, 0, 1], ns: [2, 2, 1], ls: [0, 1, 1], ms_combs: [0, 0, 0, 0, 1, -1], ctildes: [0.073992278151353869, -0.11830756329662911, -0.14798455630270771, 0.23661512659325817]}
    - {mu0: 0, rank: 3, ndensity: 2, num_ms_combs: 3, mus: [0, 0, 1], ns: [2, 2, 1], ls: [0, 2, 2], ms_combs: [0, 0, 0, 0, 1, -1, 0, 2, -2], ctildes: [-0.0081887632123727478, 0.041599686120516476, 0.016377526424745499, -0.083199372241032965, -0.016377526424745503, 0.083199372241032993]}
    - {mu0: 0, rank: 3, ndensity: 2, num_ms_combs: 2, mus: [0, 0, 1], ns: [2, 2, 1], ls: [1, 1, 0], ms_combs: [0, 0, 0, 1, -1, 0], ctildes: [-0.013200812692778688, -0.00015486791293951283, 0.026401625385557372, 0.0003097358258790256]}
    - {mu0: 0, rank: 3, ndensity: 2, num_ms_combs: 4, mus: [0, 0, 1], ns: [2, 2, 1], ls: [1, 1, 2], ms_combs: [-1, 1, 0, 0, 0, 0, 0, 1, -1, 1, 1, -2], ctildes: [-0.00862626431098437, 0.11125615736656855, -0.0086262643109843683, 0.11125615736656853, 0.029882256132286129, -0.38540263442755035, -0.02112994594829282, 0.27252081629088087]}
    - {mu0: 0, rank: 3, ndensity: 2, num_ms_combs: 5, mus: [0, 0, 1], ns: [2, 2, 1], ls: [1, 2, 1], ms_combs: [0, 0, 0, 0, 1, -1, 1, -2, 1, 1, -1, 0, 1, 0, -1], ctildes: [-0.0056987494748859191, 0.056945607076266495, 0.0098705236301088722, -0.098632684723947359, -0.01395902838542408, 0.13948768042987592, 0.0098705236301088722, -0.098632684723947359, -0.0056987494748859183, 0.056945607076266481]}
    - {mu0: 0, rank: 3, ndensity: 2, num_ms_combs: 3, mus: [0, 0, 1], ns: [2, 2, 1], ls: [2, 2, 0], ms_combs: [0, 0, 0, 1, -1, 0, 2, -2, 0], ctildes: [-0.0028112307951302677, -0.0069741338545097741, 0.0056224615902605362, 0.01394826770901955, -0.005622461590260538, -0.013948267709019553]}
    - {mu0: 0, rank: 3, ndensity: 2, num_ms_combs: 8, mus: [0, 0, 1], ns: [2, 2, 1], ls: [2, 2, 2], ms_combs: [-2, 1, 1, -2, 2, 0, -1, 1, 0, -1, 2, -1, 0, 0, 0, 0, 1, -1, 0, 2, -2, 1, 1, -2], ctildes: [0.013781594639590316, -0.11136405069790731, -0.011252624902957366, 0.090928366633103233, -0.0056263124514786831, 0.045464183316551617, 0.013781594639590316, -0.11136405069790731, 0.0056263124514786831, -0.045464183316551617, -0.011252624902957366, 0.090928366633103233, -0.022505249805914746, 0.18185673326620658, 0.013781594639590316, -0.11136405069790731]}
    - {mu0: 0, rank: 3, ndensity: 2, num_ms_combs: 1, mus: [0, 0, 1], ns: [2, 2, 2], ls: [0, 0, 0], ms_combs: [0, 0, 0], ctildes: [0.092741092241890463, -0.16186387555512585]}
    - {mu0: 0, rank: 3, ndensity: 2, num_ms_combs: 2, mus: [0, 0, 1], ns: [2, 2, 2], ls: [0, 1, 1], ms_combs: [0, 0, 0, 0, 1, -1], ctildes: [0.0394963303497999, -0.016188689188977035, -0.078992660699599787, 0.032377378377954062]}
    - {mu0: 0, rank: 3, ndensity: 2, num_ms_combs: 3, mus: [0, 0, 1], ns: [2, 2, 2], ls: [0, 2, 2], ms_combs: [0, 0, 0, 0, 1, -1, 0, 2, -2], ctildes: [-0.00056433764914831208, -0.037137228769879127, 0.0011286752982966242, 0.074274457539758268, -0.0011286752982966246, -0.074274457539758282]}
    - {mu0: 0, rank: 3, ndensity: 2, num_ms_combs: 2, mus: [0, 0, 1], ns: [2, 2, 2], ls: [1, 1, 0], ms_combs: [0, 0, 0, 1, -1, 0], ctildes: [0.00069218887428109191, 0.050420154580813822, -0.0013843777485621836, -0.10084030916162763]}
