3.1098212839
-1.1318044970
3.0386445502
2.3828270020
0.9043654051
3.9410942456
5.3125155954
1.4779921364
2.5971147323
-2.7395926335
-1.3532691430
1.3020127434
-0.3416566015
-0.1563666386
1.0531016386
4.8581542003
3.6890843908
1.3366274245
3.5205302006
4.5814539096
0.7939681730
5.3585930406
2.5086874696
1.3142650840
-1.4769573380
2.2834181730
-3.2045360791
-1.6197379864
6.1532392962
0.4410624802
-2.7832159522
1.9052100988
1.2535181435
0.4117314416
-1.2230122705
1.2098567645
2.5885751796
-0.0501395157
0.7170765192
-3.0129658569
-0.4299590261
0.8899342817
0.3001929389
-1.1107310571
-1.1307308374
-0.1639194045
2.6135963785
0.9027064770
0.6859937468
-0.0009376509
-0.0671380126
0.0089380679
2.1681609410
1.4439930905
-1.9261165229
-2.2269397554
-0.2461242129
-0.2754516054
-1.4663526095
-1.0029289619
-5.2897794325
-1.0164312950
-0.8867062510
-0.8805014023
-3.9060795481
1.7202761380
-0.9953330234
-2.1283817228
0.3122647234
-3.1375263312
-2.6978571320
3.6317665187
0.4829125242
-3.4426633632
-2.3496271014
-0.7685003874
2.5767076252
-1.0178545987
-0.1360529091
-0.3752342932
-1.6077417406
-2.5181690504
1.5475370120
1.4401001217
-1.4793503817
-1.1725292868
-0.4078236543
-0.0891776869
-1.4735235229
-2.8859643800
-4.7178503286
-1.0877435370
-2.4610736161
-1.6718409690
-4.0670261625
0.8181569259
-3.3427492129
-1.2574269046
-0.1299766888
-1.7720378426
-3.6630471463
1.3833808320
-1.0871868264
-2.4626547243
-0.6227909514
-1.5565691404
-0.8319678708
-2.3213721826
-0.6759745804
0.1121482425
-0.1017610706
-2.1971863080
-0.1825165119
1.4320044318
0.1767934123
0.2465845733
0.6427191849
0.2246417529
-0.8224652423
-2.6248406324
-0.7495417636
2.8523874172
-0.6094557468
-3.0276953174
0.5485915898
-0.0468492325
-2.2573780149
2.4486114543
1.0840695167
0.7428161188
-1.1850512462
-6.5955020964
-1.5623413655
-1.3742335314
3.4596623524
-1.5290093284
-2.5197502733
-1.1340263080
-1.2741813740
1.2135750170
2.4218019546
1.8559137771
-1.6719501648
1.6034534151
0.5886873163
3.0285994688
-1.5709293048
0.3488127055
-1.7955098828
-0.2725740593
8.0442065501
-4.9239692308
2.7793073831
0.9349422178
4.2775816210
-0.5054436968
2.0027314613
-2.9002040728
3.5617141956
2.0768255849
6.6581749554
1.2393840384
1.2813571558
4.9153276804
0.8676146297
-2.7446788729
3.4875409470
-0.0565054628
-0.7546056535
0.9380802689
-1.6343287988
2.0384047429
-6.8056426211
-0.6288191354
-0.3656860605
-0.6566760193
2.3253515482
-2.6225285639
5.9257952762
4.6710527200
3.3683441996
-5.4622591458
-0.4580921321
0.2653721385
1.1911651903
3.4680322567
-1.1851540836
2.6536993660
1.4596040291
-0.1714816845
-0.6347356152
0.1165956807
2.7934213649
2.3569183457
1.6303474661
2.2976200858
-5.8721346703
1.8480394941
3.4059973906
-0.1926198883
-0.5689449026
1.9119074792
-1.1936555346
-2.3961647124
2.3155490869
-1.2446753728
7.6945699157
1.0869654766
3.7546009073
0.9988020953
0.5835662613
-5.8292232978
-3.6938525618
6.4376434528
1.8848619724
-0.6624723466
-1.4610609981
-4.2962466167
2.6536801473
1.7845144308
-6.4956648291
7.0060078986
-1.2814417352
3.6491884172
-2.1126462824
1.0917332560
-3.6691346024
-0.3049298979
-2.7475214955
-0.3497498845
2.5259940191
-0.7389028954
2.2386311033
0.9813195249
3.1724658056
-0.5729484033
-2.0826126023
-0.2286331112
2.4712571223
-0.1154195140
-1.5728282355
-2.2855197861
-0.8222432772
0.7192643281
1.4988708261
1.8452575865
0.8271643001
0.8650262893
-0.7910633913
3.7772275243
-0.8980007025
0.1998592106
-0.0779726716
-1.0032984067
0.1338683802
1.2862644485
-2.0381910444
-0.9204766638
2.3981400056
1.6146096635
1.0421038933
-0.5663330415
0.0115952294
-1.2210566155
0.4995716087
-0.0596787396
3.7043321501
-0.6669256462
0.0218887311
1.1629629053
1.4423841278
-2.9788915996
-0.1284284960
2.9798656984
1.0519129664
1.6679820836
-2.7578954622
2.4304627620
0.4856099270
-3.3708512485
-0.0096304433
1.2293605652
3.2543036464
-0.4333140934
3.3651777706
3.3576795871
3.3900432220
5.8123673737
-2.1168538573
-1.6212326335
-1.4503827826
-0.2062408905
1.0032770557
-1.9141072912
0.6992541516
-0.1886417450
0.5874352528
0.3459882026
3.5583765326
1.3719051522
-6.2310679920
3.3794366957
3.8618566693
-1.3710120694
-1.2297121806
-2.2532059513
0.0176418170
-1.5529907369
2.4536962434
2.9495199799
-5.4205762215
-5.1373505339
1.6726156543
-2.7511698380
-1.7355993511
0.3674390496
-2.3689442104
-0.1554482697
-3.3179531605
-0.4539522102
1.3123653182
-0.4706607088
1.5283658296
0.3809446676
3.6690866737
0.3318510744
-2.4577306570
-0.8557623189
2.0385158480
-0.9794290198
-2.0453444041
-0.3543252946
-0.5900540640
-0.4128399050
1.7899290512
2.1472188755
-0.0664087237
0.9792777695
-0.2359853774
3.9465740900
-0.4499476322
-2.7820762827
-1.0915279924
-2.3987511976
-0.4827485977
-0.4143727114
1.7554260222
0.8114114676
-0.2916036292
0.2962021025
0.7992965397
0.4387759910
1.3140636016
-1.9918916391
0.2043778206
1.7808171791
0.4985753766
-0.4786537371
-2.7673516988
2.2636132720
-1.6683870866
1.5886476636
3.8311382438
-0.4901918701
2.1384626234
-4.6652334604
-4.1750121544
1.9769188427
-0.6120711144
-2.8911399063
1.1379524802
-0.8182736083
1.3802795054
-3.0731985995
1.1673986928
-2.1020164892
4.9560915135
-3.2886301689
3.9006999150
-1.0213113380
4.0496216981
-2.8388899925
-1.2111525838
0.2979230965
1.0804964473
1.5686471669
-2.1445983451
4.7573144714
-6.1581218503
-2.2272555665
-2.7134445688
3.2062040796
-0.8891659770
2.9312829495
-5.9541559148
-2.5326061302
2.2449028207
1.8067549017
-2.5118291456
1.9471148564
4.6147191378
-2.7805300912
2.5554831682
-2.3995592971
0.1667475526
-1.4418172708
0.0885641737
0.3382272850
-0.7815987770
-1.3400961545
-0.6567213792
-0.9399164446
0.8131206620
-1.0498728743
2.9451533990
0.0041409616
-1.7979938002
-1.6015340630
0.3973003764
0.1068952131
-1.9586956095
4.5204726489
0.3713826888
-3.5628699457
1.5484857645
0.6894913878
-1.1500647112
2.4435984874
-0.1934657760
2.7910361191
-0.2417455593
-6.7815597418
-2.4574062982
-2.4531519879
-0.4293139788
-4.5801959611
8.3595967130
6.4635308733
-7.1535051437
-0.6377637879
1.0113743125
0.9689128403
4.5347837709
-3.3852698201
0.4852918027
3.9079063815
-9.0402028658
1.4234946290
-7.5746743400
2.9513227875
-0.3527780240
4.6477665398
-0.2477551592
0.2163905854
-0.8948737299
-2.0817141739
2.8604055070
-4.1450662699
0.3669113243
1.9083877904
-1.5409038152
1.0566262345
-0.9313684266
-0.4737710921
0.0988710423
1.1018115132
-3.0893908398
-0.2695388209
-0.0183144134
-0.1708588913
-1.7008606611
-1.7796168663
-0.2861592291
2.5222831597
-0.3310880798
1.9370575801
-1.5212332792
-4.0719922076
1.1067833652
1.7687448086
1.7294638930
-1.8826959905
-0.5176314258
-3.6435067221
2.7234028365
0.1770102606
0.9529877039
0.4214604844
-0.1637946338
-1.0232591029
1.2742123279
1.5150862729
-2.2593015572
1.7085869751
0.2428944739
-3.2694978276
3.6008970766
0.6377625173
4.1706158398
-0.9902368938
-4.0036995448
-0.0544655315
-3.5492142653
-1.9185608197
-1.3999868485
1.6404640340
1.2182256231
-2.5129598644
-0.6353764389
-0.5907119039
3.7580659028
-4.4598912727
0.6672882213
2.3386215248
-3.4238220859
-4.5419646279
0.3853084272
-2.3335701294
-0.2174081078
-3.2871369627
2.2312701969
5.0876915597
-0.3851570870
3.4350308836
0.8127975564
7.5230868226
-7.6083935435
-7.5927038283
1.3041209520
-0.2221527491
1.4505757197
-2.4775620171
-1.5214877179
-1.7679642268
1.5448453838
-0.1302656545
3.5028578681
1.7976115574
8.3863341176
-3.6976204128
1.6893441859
-0.5356296331
1.3543667742
1.3307488128
0.0479992110
1.2805992123
1.4894494894
0.8905865441
-2.5275847278
1.6095306693
-1.0175995222
-1.1175799579
1.4122299963
-0.4009974184
-1.0326064603
0.6865495908
2.8687396875
2.7317356681
-0.2220034274
-1.7599969710
0.7211708487
-2.3856086340
-2.5474776486
-0.7532629388
1.1164093055
3.3583631060
2.2516233383
0.0053772883
0.5286131220
0.6113714451
-0.6698351206
1.7265562155
-0.9137176073
0.1996959265
-0.1005144301
0.1130082382
-2.3269236021
0.5116692464
0.3946720888
-0.1853821943
0.7113490961
-1.5916051010
1.1758307210
0.1544710360
-3.1018515854
3.5873581242
-1.8442942425
-2.2177959793
-0.8652086430
-1.6988883592
0.1953404017
1.8363330419
0.4819425324
0.9174117508
0.6119703086
1.5676734910
-3.5275415274
-2.2907392000
1.2057931223
-1.4958907484
-0.9604157235
0.8951234397
0.3204791471
0.2857084604
1.2189722860
0.5573849720
0.6234368323
-1.1030373618
-0.9840098014
0.5326531800
-0.5389417651
2.3986528944
2.9521894813
-1.3827961812
1.1719111277
-1.6030484474
-0.4839107511
1.1023168631
0.4850586654
1.2151945943
-0.4005178777
-1.2339058781
-0.3265838930
0.9232822743
-0.3368264264
-0.5071456656
0.1674181764
0.5564882632
-1.1479950019
-1.3433858392
-3.7893996819
0.1559548748
-0.3902314789
-0.0415652322
3.6257097997
-0.8124953963
0.9835916792
1.6265546011
-2.2497781071
0.6240059834
1.0683462213
-0.7489478980
-0.9391208540
1.8465057137
-1.4691752693
-2.7545381149
-0.0554408432
1.4582259826
0.5316867612
2.7898210198
-0.7029191474
0.5274273438
1.1530313699
0.1870772520
1.0774047710
-0.8660052568
-1.4748381824
1.0991829657
1.4179978107
-1.1260697537
0.0378934312
-2.4871629753
-2.7074835367
1.0698741319
-0.0633074984
1.4165714308
0.6336319328
-0.2474900894
-0.7406998755
2.9104613591
1.1908953627
-2.0647264537
0.2119088062
-0.9587241727
-1.3284061778
1.3090800825
1.5024766466
-0.9956119703
2.0583648808
1.3524451337
-3.0683724893
2.6149108625
-2.1129103524
1.6394324398
0.6975330385
3.8486224192
1.5671058880
0.9534420502
0.4832116985
-1.9347404582
-0.6707218386
-0.5704546866
1.8361852641
0.5514984722
-1.2087854209
1.5499117009
4.2892073261
0.3267474776
-0.3263184918
-2.6781699124
-1.9356134576
-1.1433972045
-0.5765647683
1.6504701839
-2.6065588672
-1.2307342125
-1.1958525628
1.3184826270
-0.5148764989
2.8443089067
-0.5230018973
2.8734689110
2.0737421486
-2.3680848364
0.0448608468
0.4630893529
0.1874981125
1.9999630446
-0.9854951996
-0.7879722309
0.5688972710
0.4055781383
1.9872617523
-2.4871675148
1.4334515286
-0.0071519805
0.3106940716
-0.2283291277
-3.1845800572
0.0660513934
0.3543822762
-0.9534790881
2.3335484371
2.9844540347
-3.0671009488
-0.2157175872
2.2200094023
-3.5129731409
-0.4175144768
1.4165536072
-2.2379043659
0.1918164199
-2.0667262175
-2.6444742961
2.3452453601
1.4630981287
-0.9554004136
-0.3559268400
1.1361403699
0.8920727930
1.6662081813
-0.9860858240
-2.3043950539
-0.5092032849
-2.3027139153
1.6757781345
1.0274987849
-0.8492113819
-1.5860140825
-0.9075739004
-0.3089943420
-0.1455551220
0.3191511814
0.5341453350
-0.0838938313
-2.7147267230
1.7917652568
-3.8027169400
1.0865493986
1.8058338632
0.3504086133
0.5269179850
-0.5424134316
-3.3813273437
0.9185033237
1.7199803886
-4.6107789203
-0.3656512310
2.1045472323
-0.6603239895
1.0340141568
2.9914150639
-0.8675136392
0.6464023734
2.6066896469
-1.3233617341
0.2992856255
1.1632580666
-0.7384114429
-2.4815566086
1.4476696337
-0.5146548801
0.9729586709
0.2677330430
0.6311782965
0.1060244773
-0.0468004276
0.0121761856
-0.0052916619
0.1171462322
0.2720068491
-0.0235905470
-0.0431506351
-0.0042846682
-0.0709644808
0.0082965956
0.0990502082
0.8827253843
0.1189662468
0.1018287114
0.5820362577
