4.9417407655
7.1161404061
3.5561370276
0.4566868941
-1.8980488602
1.4124171681
0.1685670458
3.9491589304
-0.4698441680
-1.9971847233
0.8875965452
-1.9132534614
-0.3897608125
-0.5988048247
-0.1895031830
-2.7127375963
10.0895595079
-3.6228635416
-1.4827347140
-2.0824177704
-2.3843320880
0.2761597406
1.3377502477
3.8363654652
2.5066144613
-0.8191742428
3.3364779908
-1.8589580023
4.7454703870
-0.5663558989
-0.0763134971
2.2782295253
0.7584853812
0.7372806552
4.6369297923
-0.1474748509
1.6520343734
-3.5796754114
0.3370901058
2.8870938465
2.8358596510
0.0058347348
-0.1064119707
2.2265465419
-1.8543438263
3.5731549062
0.4106044126
0.3635193610
0.7133173221
5.4373490307
-1.3263024318
-0.6399608576
-9.4013977265
0.4258891983
-0.8172512325
2.7417108378
-0.7218938602
0.7718978223
0.6871365045
0.8882305594
1.0544637109
-3.3964543486
4.5769742621
0.9959813322
0.1731514762
2.6604664436
-0.1919022990
-0.4504999485
-1.3538787540
-0.6135315063
1.2874896971
-0.3006370721
1.9493661939
0.7301451076
-2.1578904936
0.9555536677
-3.2223674261
2.6391966212
0.4524633368
1.1501158372
-0.0821655189
-3.5863231732
-3.1730247528
1.2103002455
-1.0536767781
1.1744027463
0.7220686493
2.1171970729
0.6358981158
-0.2733659277
2.8459212995
-6.5181219166
4.4604103084
-0.0088106770
-4.6259568697
2.0894894534
-3.0162865279
2.4559127770
-3.0642109939
-4.2491696493
-0.4464168675
0.2925613031
0.9607806890
-1.5800892996
-0.3188267467
-0.1449240080
-3.2139317875
3.7633036643
-1.6468323232
-5.8475912868
0.9341139115
-2.9690102789
9.0425630573
0.3293064555
-2.4297569215
-1.4853943395
1.3595096993
2.0551020085
-1.2139618316
-2.8190918021
3.8290007003
-5.1217661089
-3.8225236067
-0.3245850639
3.3899208305
-3.1352795801
-1.5135070730
-3.4643801609
-4.6774097616
-2.6204362785
0.3921644939
0.8749749543
-2.1619152043
-2.4877078155
2.8484051661
1.2762579781
-2.9186895346
-3.6193126990
-3.7590649998
4.1727170680
-2.0180170742
9.4635692572
-2.2364903240
-7.1292661978
0.7184122120
0.1023582590
-0.8520941793
-2.3627869693
-1.7777610125
-1.1423154437
0.1508013089
4.5032872472
3.0720070277
-1.0633856392
1.5344204610
0.0193886816
4.5258349141
1.6900791546
3.1955326594
1.4842350291
-3.1125741869
3.0771820304
4.5856718850
-2.0520295443
0.5074694186
1.2449469607
0.4253212146
-0.3248179687
1.3901441822
0.3685197329
0.7206539685
-2.7172645799
-0.2086966549
6.4744976192
1.2134486567
-5.9371466245
1.1460767350
1.1834753503
0.8315512701
0.9978281034
-4.0623738854
-1.4364164767
0.5973861730
1.9154834477
0.8999939962
3.4173504333
1.8037555249
3.0395048016
1.4402482581
-1.9933372415
-1.9376390926
-0.4870336675
-0.1884941932
-1.1426819686
2.1924554906
0.8289905388
1.5301433384
-1.2806557612
0.1642679850
-6.0895198954
-2.7282365250
-0.0793555452
3.9540680262
-1.1179785750
-2.5823599234
-0.3130966030
-3.3868883226
-0.8677286484
0.6626873317
1.2341522016
-1.2696395264
0.9932309618
1.3985959906
-0.4771583055
-2.2473470354
-0.2503967745
-1.7988294757
7.4357478667
-0.5683713645
-1.2687699046
-0.4116330641
-1.6359586741
-3.9001299419
-0.6657092045
-1.4412943693
-4.6017292926
0.9633199224
-2.3612799547
2.0028247144
-2.0722710699
-0.9914833768
-0.0154907740
0.6518910133
-0.2565592477
1.4077073075
-0.5338412724
-1.2580582600
-1.3774636835
0.8921812814
2.5599746293
-2.1331748956
2.0554320182
-1.8689229742
-1.6144047405
0.4817452767
-1.2443597867
1.3462744514
0.6500246070
0.0637278351
-1.0014540477
-0.9940396958
0.4267803400
-0.1557899910
-2.7608014726
0.8428043710
0.3631397226
-0.2452352527
-2.8546445381
-1.4210228970
0.9078858880
-0.3854637251
-0.6288272610
4.4253311381
-0.8723468774
-1.7953195739
-1.8058177694
-1.5058577131
-2.1269043213
-0.9786422504
1.6805797660
-0.1114635856
-2.8072526253
2.0147935749
-1.5838232315
4.3854731908
3.8088856170
0.7961360665
1.8126879747
-0.6066183630
-0.1358021904
0.0311866830
0.4407519698
1.1750116109
-1.2456632928
0.2936529320
1.5710398557
-0.6004725721
-0.1664058646
3.2344136526
-0.9085394093
1.2972113109
-1.9969878537
0.1409666517
2.3659919679
3.5613585923
0.4752243888
-6.4324680241
-3.9211571265
3.6652684777
1.7377650898
-1.7667073480
-1.0317725111
1.4802905654
0.9417977657
-0.2817108651
1.4816711347
-0.3998868119
-5.2589815215
0.2054476314
3.4333771693
2.1130118631
-2.1492094652
-1.3170732359
0.4419875807
-3.0074154191
-3.9694210388
1.4896614346
-3.2591265016
1.0280554099
-2.1872513147
-2.1326512679
-0.8318781152
-0.1807062899
-1.7459316970
2.1922334066
0.6673380879
-0.4804736210
-1.1281289823
1.0894732634
1.3378082608
-3.3307830660
1.1067518107
-1.4734472917
-0.7619675937
2.4700042673
-0.6795173255
1.1578845345
-0.8144700969
0.8405000086
0.7428907032
-0.4279662983
1.7884854301
-0.5757356751
-2.9188214316
0.1595090425
0.6575186128
-0.5890859738
-3.6167828481
-0.3888442328
2.5492251700
-0.7647527686
0.6836830521
-0.2027425880
-0.7060960236
0.0436120482
-1.3637945595
-2.1583361791
-1.1198307041
-1.1837817663
2.5964105578
1.0612309551
-0.9856796121
-1.5530067596
-0.5588199360
-1.3128923720
-2.3269387236
-0.4123234234
-0.0676398779
0.7026378870
1.3030025028
5.4113026149
1.0732542633
1.9804914329
0.9462377052
1.4007414038
-0.8656441999
1.4401961862
-0.4609646442
-1.8686682382
1.5116575134
2.5604141114
2.4981724381
-0.4341723038
0.1325016937
-1.1289453703
2.0594622932
-1.6371856295
0.2195275989
3.4081958475
-1.9615523101
-3.0855100311
-4.7897244231
-3.7567171758
3.3796296163
0.3134402912
0.3745701715
2.8671663712
1.6648836362
4.8296810257
-0.6989876473
0.0666093332
-3.5864047463
2.3986980893
4.5405497929
1.5342461046
-1.8032214153
1.7263464927
-2.9234428115
-0.2606745152
1.8964529873
-2.4113108060
-1.5249899643
-2.9330315890
-4.2130000312
3.8681184192
2.4907027836
-0.5619730840
-0.4812027622
0.7043123280
-0.1773995010
-2.5100138835
-0.5990708823
-0.9149419385
1.0801978914
8.5430222326
2.7332844486
-0.2005019285
-4.6391538578
2.6611086111
5.1035471909
0.2261286093
1.4210489871
-2.4666138714
-2.1064732322
0.8240553733
0.1364241317
-1.0670588050
-0.7318918782
-1.1893998090
-0.3398753832
1.6702789447
1.1313147080
-8.5228778292
1.3916686362
2.1167952074
-1.8846639557
-1.0144154990
1.6267582044
-1.6182494809
0.6192397548
1.0695748651
2.2829495937
-2.0632035856
1.8068789225
-1.2587096814
1.6269814956
-0.6088896498
-0.3421730095
0.0929198100
-1.9356627224
0.4951591316
-0.1593322065
-1.7502826252
0.2489151802
-1.1352215502
1.8833615126
1.5700328576
-0.7552466519
-0.8589551882
-1.1774209470
-2.2079094474
-1.5105150770
0.0964511971
-1.5398605866
0.3380654667
0.2234903387
2.8047082540
2.8113916219
-0.7119835852
2.1204191746
1.5017165988
4.3307759006
-0.8681357799
-4.1239287935
-0.7025277346
-0.1155483595
-1.0731676785
-0.3359738683
-1.2112532729
0.2757515161
-0.0498040234
3.2286710864
-1.5445689839
-2.8088880510
-0.6325151277
0.7432915906
-3.0709016884
1.0064917884
-3.6544434333
-2.7146786261
3.8535944507
2.2047235334
2.3036635926
3.7124243959
-0.4682858691
-0.4742385886
-0.0977373002
1.0310003417
-4.8806339803
-3.8161208053
-0.4440299508
-3.3118429906
0.2757009476
0.8099864801
-8.4513679020
-0.8642263130
-0.2528006422
5.5197824722
-2.6543024091
-1.4761577678
-0.2339026109
2.1287387644
0.0822283518
0.2351571138
-1.0850591302
0.3838290966
4.0924115909
4.0216246010
1.7663642661
-2.1446965059
-0.8242582772
-0.7516183168
3.7257190017
-1.4209553031
-1.4529196732
3.7934487912
1.7386525706
3.1854709540
0.1791805089
-2.5111897749
-1.4662737461
0.8814265577
-0.8223052670
-0.5668564241
-0.3272902745
-0.1666471697
-0.2269459418
0.6028720132
-1.4433262680
-0.1286777957
1.0566165789
-1.6428718321
-1.0132139310
1.4272137196
-0.7857967121
-1.7412287957
-0.2348341772
2.0566024928
-0.3333101926
-0.5796829415
1.2587705941
-0.6219952845
-0.9065738037
2.0947106187
2.0802818441
-1.5144641762
-4.1909789546
1.0921227877
-2.7662295690
-1.3477419994
-0.1721935279
-1.4109012274
1.4615843944
0.7964103768
0.8395175110
0.9834876913
1.0842504058
-0.5945469612
2.7303539916
-3.1224969284
-0.5091848432
-0.9962007328
-2.4246364626
2.0109227885
0.3256997085
0.8512807423
-4.6885345045
2.7597258430
0.5687216487
0.8652513123
2.6990667458
1.9723532962
-3.4277777667
2.1194497751
0.0503303371
3.8669339505
-1.1376678591
-0.2487864251
-0.5608767273
1.1465900001
-1.1944422952
1.0772017025
-1.7593872862
-0.9465769177
-0.7245260917
0.6697512578
-3.4093500650
2.6408703006
-1.6789191834
0.9799486064
1.5309721621
-0.2138265072
-0.1768088073
-0.8602774969
0.5865483901
-0.0177127608
-1.6736631261
-0.0601317372
1.1801600495
-0.9567612097
-1.7912069956
-2.2930920373
1.2782520702
-0.9414004125
0.3287703854
-2.0383873110
-2.0030199705
-1.4882333900
-1.4834420149
0.6082116232
-1.9793911438
0.4527919611
-0.2388090890
0.2259739951
3.2525403741
1.9000279040
2.1860893757
-1.5419321566
0.8370298932
-1.0565182123
1.2062081167
0.5728541543
-1.7145924684
-0.9733375337
-0.3516683144
-1.1793758923
-0.9041737106
-1.4120734597
-1.5112786750
2.0849095891
-1.0533394111
-0.1178605824
-0.4207987692
-1.0307390395
-0.5136017050
1.5813659863
2.4986066812
-0.9456838825
-1.1580817639
-1.6672425783
-0.3963238953
-0.6708547115
3.2453581471
1.2669020431
-2.5122378458
3.5724557136
-1.3952712090
0.2895510611
3.1949285406
1.1886394231
-0.4817202363
-2.3656158487
1.6374174155
2.2887978729
1.0868162893
-4.5812808889
-1.4899561721
-2.6881835537
-1.0850441409
-3.3278223346
0.7786351756
1.3182686906
-0.0962421789
-0.7395318538
-0.0497503782
2.1941057283
3.0857329943
0.8297879534
2.6354290563
1.3843110240
-1.0188479311
0.6247907752
-0.7200509430
-0.9203495082
0.3430971775
0.7219285174
0.5307124710
-0.5689060294
-1.3755978975
1.3118899042
1.7748602022
-1.2598519713
0.2155776713
-2.5792025718
2.2359309657
-0.0519465371
1.1602002594
-2.9433415761
-0.5193114390
-1.0760150355
-0.7965353295
-0.6768782144
1.2740438404
-0.5832783699
0.7577978709
-2.1037776831
-0.5839810656
-0.0492836872
2.6965445135
1.8903054006
2.7712366658
2.2811465103
2.0725932293
0.8475158927
-0.0954456053
-0.1481032704
3.1926649804
-1.1178332143
1.1057557367
-2.7855460984
-3.6308221875
-0.4562912076
-0.5123941552
0.8690199790
-0.9513255319
-0.0459508854
2.4679843027
2.4048526217
2.5861467279
0.9826106188
-0.3875336673
2.6217963679
-2.1702889905
-0.1663423081
-3.4143875878
-1.0909503810
-1.2498083663
-2.3052580682
1.1750964002
-1.1186806169
-0.9518976769
-0.9891468862
1.9094706545
-0.5040544885
1.8727976517
0.3510182825
0.9030840845
-1.1491846836
0.3828255516
0.5598733045
2.2961022003
0.9701761445
0.0936003992
-0.0480016641
-1.2608724423
2.3625150928
-0.4279310628
0.4133612497
-2.2211956635
0.4310336737
0.4790966447
0.5637279189
-0.9770172317
2.4807568591
-0.7115424580
-0.4869192319
0.3861129330
0.0871731829
0.8260057663
1.1728030378
-2.7980071955
0.4222116434
0.4661923976
0.5813314021
-0.2836332454
0.8639215351
4.0860328524
-4.1462742734
-0.4136483057
-1.9004919608
1.6257569074
-1.4574696461
0.1967038432
-2.3704627009
-0.9757629439
-0.0508161665
-0.0006520179
-0.0217426366
0.0607536363
-0.1321427404
0.0649964999
-0.0406455366
-0.0551419987
-0.0185214223
-0.0922200389
-0.0061522309
0.0238980736
0.0990326804
-0.0604402888
0.0014433183
-0.0395908091
